tree
version=v4
num_class=1
num_tree_per_iteration=1
label_index=0
max_feature_idx=6
objective=regression
feature_names=Soil_Type Crop_Type Soil_Moisture_at_Planting Average_Planting_Depth_in_cm Average_Plant_Spacing_in_cm Average_Rainfall_during_Crop_Cycle Average_Temperature_during_Crop_Cycle
feature_infos=-1:4:3:1:2:0 -1:3:1:0:2 [5:69.019999999999996] [1:16.670000000000002] [2:44.770000000000003] [50:1430.9000000000001] [5:52.530000000000001]
tree_sizes=5266 5372 5374 5385 5367 5282 5359 5286 5337 5276 5310 5320 5309 5261 5276 5331 5345 5360 5299 5277 5301 5303 5356 5291 5318 5318 5354 5353 5310 5334 5346 5292 5266 5304 5330 5328 5293 5326 5324 5318 5258 5391 5282 5331 5355 5277 5344 5345 5362 5362 5297 5337 5354 5380 5309 5299 5326 5303 5329 5275 5312 5344 5253 5333 5238 5328 5343 5323 5318 5288 5257 5333 5283 5363 5239 5338 5266 5274 5313 5215 5245 5293 5294 5255 5241 5239 5250 5307 5271 5348 5239 5312 5312 5193 5248 5230 5309 5193 5257 5291 5173 5273 5272 5265 5277 5224 5237 5167 5188 5249 5269 5241 5230 5228 5245 5165 5190 5184 5209 5211 5294 5128 5148 5277 5162 5182 5149 5259 5167 5238 5193 5192 5252 5305 5156 5237 5258 5179 5217 5206 5224 5127 5200 5241 5150 5259 5074 5023 5039 5122 5175 5124 5153 5188 5147 5099 5099 5109 5287 5304 5128 5118 5098 5060 5101 5200 5248 5249 5140 5159 5173 5126 5119 5150 5134 5091 5097 5265 5101 5137 5164 5134 5186 5143 5163 5006 5059 5079 5042 5014 5177 5130 5142 5101 5187 5171 5044 5151 4957 5122 5154 5150 5104 5190 5072 5186 5009 5061 5095 4978 5083 4977 5090 5128 5131 5218 5047 5045 5094 5001 5117 5166 5175 5006 5090 5133 5099 5196 5217 5190 4942 5111 4977 5006 5246 5090 5078 5203 4998 5139 5067 5222 5201 4971 5086 5028 5081 5009 4943 5109 5126 5115 5147 5080 5075 5214 5099 5073 5198 5156 5178 5106 5189 5092 4959 5103 4952 5070 5062 4940 5035 5017 4983 5111 5059 5118 5145 5057 5178 5104 5137 5115 5150 5182 5176 5081 5139 5033 5063 5136 5046 5032 5071 5009 5056 5081 5104 5069 5201 4958 5108 5052 4999 5080 4996 5130 5057 5059 5114 4951 4985 4986 4976 4995 4957 5049 4952 5049 5006

Tree=0
num_leaves=60
num_cat=8
split_feature=1 2 2 2 6 3 0 3 2 1 6 6 0 1 2 2 3 3 5 2 2 2 2 2 6 5 6 1 3 3 0 5 5 0 5 6 6 3 3 3 3 3 6 6 5 3 5 6 6 3 3 2 5 5 6 6 6 2 2
split_gain=3.20974e+10 7.2448e+09 5.55588e+09 1.65452e+09 1.5748e+09 1.33091e+09 1.3141e+09 7.27425e+08 5.69008e+08 6.42087e+08 3.34534e+08 3.27922e+08 3.10486e+08 2.92916e+08 2.79167e+08 4.59858e+08 2.57341e+08 3.70937e+08 2.48735e+08 1.96945e+08 1.9531e+08 1.75477e+08 1.72233e+08 2.73088e+08 1.56846e+08 1.44793e+08 1.44236e+08 1.40426e+08 1.34549e+08 1.64162e+08 1.19951e+08 1.08158e+08 1.16673e+08 1.04311e+08 7.44264e+07 6.59875e+07 1.62924e+08 6.59866e+07 6.56919e+07 1.08722e+08 5.61133e+07 5.50344e+07 5.37743e+07 1.30503e+08 5.29798e+07 5.75659e+07 5.26785e+07 5.05965e+07 5.63493e+07 4.9928e+07 6.96821e+07 4.93168e+07 4.58563e+07 4.78826e+07 4.57467e+07 6.96856e+07 4.56803e+07 4.37321e+07 8.60204e+07
threshold=0 13.955000000000002 38.905000000000008 12.525 12.595000000000001 2.5250000000000004 1 1.5350000000000004 36.375000000000007 2 37.555000000000007 37.885000000000012 3 4 30.075000000000003 20.035000000000004 8.0050000000000008 4.9650000000000007 157.97500000000005 45.675000000000004 32.455000000000005 15.475000000000003 30.205000000000002 19.915000000000003 14.595000000000001 499.42500000000007 8.1150000000000002 5 8.0050000000000008 4.995000000000001 6 499.42500000000007 847.5150000000001 7 851.70500000000015 21.025000000000002 27.055000000000003 1.9850000000000001 7.9650000000000007 4.9050000000000011 9.0150000000000023 7.495000000000001 26.815000000000001 21.115000000000006 499.42500000000007 5.0850000000000009 200.01500000000001 27.055000000000003 21.635000000000002 8.0050000000000008 4.995000000000001 10.575000000000001 851.70500000000015 501.92500000000007 21.025000000000002 27.055000000000003 29.435000000000006 20.035000000000004 30.075000000000003
decision_type=1 2 2 2 2 2 1 2 2 1 2 2 1 1 2 2 2 2 2 2 2 2 2 2 2 2 2 1 2 2 1 2 2 1 2 2 2 2 2 2 2 2 2 2 2 2 2 2 2 2 2 2 2 2 2 2 2 2 2
left_child=1 -1 4 51 -3 -6 10 -5 9 12 16 14 -9 19 15 49 17 -7 -14 41 26 27 23 52 -23 -17 -11 -20 29 -27 37 -25 42 44 35 -31 -37 -28 39 -16 46 -10 43 -33 -26 -46 -39 48 -30 50 -8 -2 53 -19 -41 -56 -48 -18 -59
right_child=3 2 -4 7 5 6 11 8 13 20 -12 -13 18 -15 38 25 57 22 21 -21 -22 24 -24 31 33 28 30 -29 47 34 -32 32 -34 -35 -36 36 -38 40 -40 54 -42 -43 -44 -45 45 -47 56 -49 -50 -51 -52 -53 -54 -55 55 -57 -58 58 -60
leaf_value=1164.2818361049635 1131.372167490156 1167.7745151662079 1167.4809392419959 1132.9946012800444 1167.2996990845022 1342.4266392917964 1272.5998171394378 1171.13203113292 1182.0097768092121 1134.7741070855516 1187.2081532573329 1162.4090624668372 1142.0035343011173 1133.0944680901496 1269.3986606377343 1301.7656841240635 1312.3972262029699 1314.490270076953 1186.9802043550162 1133.2242968670366 1130.321819995331 1138.8955700143438 1366.8301376604529 1369.9928687721906 1212.3740105086931 1325.9057371733165 1132.319534336423 1136.1622355028128 1306.8602876674759 1351.4688645556434 1160.8139658887656 1420.2880384416301 1377.2729397679811 1192.3686922098073 1328.9104468084379 1412.582135966846 1353.5453303207923 1133.6128907340935 1272.3428203297133 1291.463144869005 1132.7941316130912 1132.0569335081541 1420.7201648660391 1488.2472933639731 1207.2814623538268 1190.585468842705 1183.6254967775355 1290.8736125521377 1358.7009690329724 1273.3594046372859 1314.1027065289998 1146.2051982225157 1308.154999105956 1383.8239590062599 1342.7051476100917 1297.9666114520028 1132.4076634980383 1367.6166296919337 1316.6882852703727
leaf_weight=1816 4202 285 1139 1828 228 806 266 3716 2078 546 48 66 444 1774 340 346 209 56 822 570 671 221 623 129 2614 550 145 399 192 367 2970 237 132 6989 183 519 410 110 439 283 119 114 244 333 2201 1873 4435 189 221 362 778 1487 57 380 425 285 87 442 257
leaf_count=1816 4202 285 1139 1828 228 806 266 3716 2078 546 48 66 444 1774 340 346 209 56 822 570 671 221 623 129 2614 550 145 399 192 367 2970 237 132 6989 183 519 410 110 439 283 119 114 244 333 2201 1873 4435 189 221 362 778 1487 57 380 425 285 87 442 257
internal_value=1201.59 1294.39 1314.45 1170.25 1330.11 1334.56 1338.31 1175.97 1178.36 1182.04 1370.45 1317.42 1189.3 1155.34 1319.27 1328.75 1373.14 1383.03 1193.65 1169.99 1166.7 1195.16 1397.97 1410.34 1197.4 1344.34 1169.57 1169.72 1349.93 1358.56 1171.98 1430.12 1438.32 1198.34 1370.7 1376.6 1386.53 1178.88 1295.83 1303.56 1180.26 1179.41 1448.22 1459.99 1204.59 1199.61 1181.48 1320.87 1334.6 1295.76 1303.53 1135.25 1367.2 1374.92 1315.26 1324.75 1182.64 1340.49 1348.89
internal_weight=54057 13642 11826 40415 10687 10402 10174 34726 32898 28362 3953 6221 19279 4536 6155 4383 3905 2997 15563 2762 9083 15119 2191 1568 13898 2977 8412 1221 2631 2029 7866 1075 946 13677 1479 1296 929 4896 1772 1333 4751 2192 814 570 6688 4074 4632 602 413 1406 1044 5689 493 436 993 710 4522 908 699
internal_count=54057 13642 11826 40415 10687 10402 10174 34726 32898 28362 3953 6221 19279 4536 6155 4383 3905 2997 15563 2762 9083 15119 2191 1568 13898 2977 8412 1221 2631 2029 7866 1075 946 13677 1479 1296 929 4896 1772 1333 4751 2192 814 570 6688 4074 4632 602 413 1406 1044 5689 493 436 993 710 4522 908 699
cat_boundaries=0 1 2 3 4 5 6 7 8
cat_threshold=2 5 9 8 8 1 21 5
is_linear=0
shrinkage=1


Tree=1
num_leaves=60
num_cat=4
split_feature=1 2 2 2 6 4 3 1 6 4 4 3 2 3 3 2 5 1 5 5 2 2 4 1 3 3 6 6 4 4 6 4 4 2 2 2 2 3 5 3 2 5 2 2 6 6 3 6 4 3 2 2 6 2 2 4 2 2 5
split_gain=2.7763e+10 6.26603e+09 4.80528e+09 1.43064e+09 1.36204e+09 1.17879e+09 1.1511e+09 6.29784e+08 5.54132e+08 5.36353e+08 5.85141e+08 5.28732e+08 4.81948e+08 3.92601e+08 4.27936e+08 3.27699e+08 3.10328e+08 2.41313e+08 2.37976e+08 2.47045e+08 2.02583e+08 1.81898e+08 1.79206e+08 4.56511e+08 2.44205e+08 1.7392e+08 1.66438e+08 3.78833e+08 1.65286e+08 1.33738e+08 1.40839e+08 1.33735e+08 1.10454e+08 8.15701e+07 1.18036e+08 8.15486e+07 8.76392e+07 8.0841e+07 7.73041e+07 7.44914e+07 6.82719e+07 6.81566e+07 6.81558e+07 1.04733e+08 6.45994e+07 1.17093e+08 6.06088e+07 5.97129e+07 5.78024e+07 1.11551e+08 5.4197e+07 7.38592e+07 5.21599e+07 5.05e+07 5.95348e+07 4.74044e+07 4.71336e+07 5.63537e+07 4.69943e+07
threshold=0 13.955000000000002 38.905000000000008 12.525 12.595000000000001 3.0950000000000002 2.5250000000000004 1 37.885000000000012 20.015000000000004 30.075000000000003 1.5350000000000004 36.375000000000007 8.0050000000000008 4.995000000000001 32.455000000000005 157.97500000000005 2 499.42500000000007 847.5150000000001 17.895000000000003 45.675000000000004 14.025 3 5.0250000000000012 1.9850000000000001 27.205000000000002 21.025000000000002 12.005000000000001 4.8350000000000009 7.4050000000000011 14.025 20.985000000000003 30.075000000000003 20.255000000000006 29.655000000000005 19.805000000000003 3.0150000000000001 499.42500000000007 9.0150000000000023 27.995000000000001 200.01500000000001 29.965000000000003 20.035000000000004 26.975000000000005 21.295000000000005 7.495000000000001 29.435000000000006 5.9750000000000005 7.495000000000001 30.075000000000003 19.915000000000003 14.425000000000002 18.625000000000004 30.815000000000001 20.015000000000004 30.685000000000006 20.035000000000004 499.42500000000007
decision_type=1 2 2 2 2 2 2 1 2 2 2 2 2 2 2 2 2 1 2 2 2 2 2 1 2 2 2 2 2 2 2 2 2 2 2 2 2 2 2 2 2 2 2 2 2 2 2 2 2 2 2 2 2 2 2 2 2 2 2
left_child=1 -1 4 -2 -3 -5 -6 15 9 28 13 -9 16 14 38 25 -13 21 -16 26 58 31 24 40 37 -7 27 50 -8 -27 -31 46 39 34 -29 36 -12 -22 -11 41 52 -32 43 -40 45 -15 -14 -43 49 -26 51 -20 -24 -28 -55 -54 57 -47 -18
right_child=3 2 -4 5 6 7 8 11 -10 10 35 12 17 44 18 -17 20 -19 19 -21 22 -23 23 -25 48 29 53 33 -30 30 32 -33 -34 -35 -36 -37 -38 -39 42 -41 -42 47 -44 -45 -46 56 -48 -49 -50 -51 -52 -53 55 54 -56 -57 -58 -59 -60
leaf_value=-34.731712832831604 -61.732018443080932 -31.48352134537279 -31.756546722600294 -64.910956059247454 -31.92510006439268 -66.69561877780491 -49.032592600941662 -59.847803188256464 -32.864170691172284 75.323091230981149 77.116795607924459 -57.526306778360379 -1.4718454072474649 99.797721929128372 119.55440739348749 -67.062132817134668 -12.441380014216595 -61.392324629768424 130.90533549341663 124.61197179718475 4.6489642195894074 -60.937697792637536 -61.128872111692274 -61.690020791882674 -4.7607522279622572 -67.119313439105952 119.79320102691652 189.60570601928276 95.086813072887381 -65.81105037885844 -64.619846987516993 -65.03485332620555 -69.060483003355174 186.71082655303334 244.66908461548266 73.219662172010658 120.86366794179823 25.82217162844514 98.605015426559447 -65.396333665901068 -13.985232721623662 -17.552912025425613 100.86459445841173 151.99880903549553 94.34623234849623 117.53089530210143 -61.549876274021194 -65.845048060417184 -1.9342176639802127 -63.878954359355731 125.34702443373831 182.63938590042679 10.933198011484494 176.79075720095483 133.68495330161238 -9.7955012604150031 108.5674636009558 171.17004536686173 -30.452060080504559
leaf_weight=1816 5689 285 1139 3120 228 576 40 1130 105 162 320 554 1517 520 477 1323 1439 1118 203 459 1361 457 59 739 498 384 168 281 1549 388 161 203 241 343 594 486 751 2519 250 179 1635 6327 357 643 524 135 87 128 4195 228 228 405 2021 473 235 738 134 332 1401
leaf_count=1816 5689 285 1139 3120 228 576 40 1130 105 162 320 554 1517 520 477 1323 1439 1118 203 459 1361 457 59 739 498 384 168 281 1549 388 161 203 241 343 594 486 751 2519 250 179 1635 6327 357 643 524 135 87 128 4195 228 228 405 2021 473 235 738 134 332 1401
internal_value=-0.0387229 86.2694 104.923 -29.186 119.49 -23.8625 123.627 -19.8104 127.113 128.781 135.774 -13.211 -10.68 144.495 153.801 -34.6493 -5.97708 -34.8577 165.847 172.362 -4.28051 -21.3888 -0.820938 -11.1347 5.26349 -29.5759 179.843 190.738 91.4589 -26.8375 -24.754 -11.5051 -22.4899 215.644 226.986 97.0011 107.793 18.3952 120.82 -20.8381 -2.60039 -19.6326 126.716 137.051 114.636 124.12 -4.73044 -18.5105 -5.09029 -23.3268 154.452 165.366 3.99585 154.296 162.483 5.38852 145.163 155.664 -21.3262
internal_weight=54057 13642 11826 40415 10687 34726 10402 31606 10174 10069 8480 21899 20769 6923 5278 9707 17387 3382 3866 3389 16833 2264 13993 5192 8801 8384 2930 2054 1589 7808 7424 1807 7036 1218 875 1557 1071 3880 1412 6795 4453 6616 1250 893 1645 1121 1604 6455 4921 726 836 608 2818 876 708 2759 601 467 2840
internal_count=54057 13642 11826 40415 10687 34726 10402 31606 10174 10069 8480 21899 20769 6923 5278 9707 17387 3382 3866 3389 16833 2264 13993 5192 8801 8384 2930 2054 1589 7808 7424 1807 7036 1218 875 1557 1071 3880 1412 6795 4453 6616 1250 893 1645 1121 1604 6455 4921 726 836 608 2818 876 708 2759 601 467 2840
cat_boundaries=0 1 2 3 4
cat_threshold=2 4 8 1
is_linear=0
shrinkage=0.07


Tree=2
num_leaves=60
num_cat=5
split_feature=1 2 2 2 6 4 3 1 6 4 4 3 2 3 3 2 5 1 5 5 2 6 2 4 1 3 3 6 6 4 6 4 4 1 4 2 2 3 2 2 5 3 4 2 2 2 2 5 4 3 6 3 6 6 5 2 2 2 2
split_gain=2.40131e+10 5.41949e+09 4.15608e+09 1.23719e+09 1.17803e+09 1.0194e+09 9.9559e+08 5.44484e+08 4.79269e+08 4.63891e+08 5.06089e+08 4.57218e+08 4.17154e+08 3.3956e+08 3.70122e+08 2.83427e+08 2.68375e+08 2.09145e+08 2.05825e+08 2.13669e+08 1.79791e+08 1.67678e+08 1.57324e+08 1.56206e+08 4.03994e+08 2.2774e+08 1.50423e+08 1.44078e+08 3.32101e+08 1.42956e+08 1.16558e+08 1.2234e+08 1.15667e+08 1.02912e+08 9.6938e+07 7.05314e+07 7.57991e+07 6.98367e+07 6.98053e+07 1.04341e+08 6.68603e+07 6.42276e+07 6.16103e+07 6.0673e+07 1.18845e+08 5.8948e+07 9.05839e+07 5.7097e+07 5.48881e+07 1.10963e+08 5.24329e+07 5.24206e+07 5.08902e+07 5.23517e+07 4.69101e+07 4.6875e+07 6.38808e+07 4.55535e+07 4.4266e+07
threshold=0 13.955000000000002 38.905000000000008 12.525 12.595000000000001 3.0950000000000002 2.5250000000000004 1 37.885000000000012 20.015000000000004 30.075000000000003 1.5350000000000004 36.375000000000007 8.0050000000000008 4.995000000000001 32.455000000000005 157.97500000000005 2 499.42500000000007 847.5150000000001 15.475000000000003 14.595000000000001 45.675000000000004 13.855000000000002 3 5.0250000000000012 1.9850000000000001 27.055000000000003 21.025000000000002 12.005000000000001 8.1150000000000002 4.8350000000000009 14.025 4 20.985000000000003 29.655000000000005 19.805000000000003 2.9650000000000003 30.075000000000003 20.255000000000006 499.42500000000007 9.0150000000000023 19.895000000000003 20.035000000000004 30.205000000000002 29.965000000000003 20.035000000000004 200.01500000000001 5.9750000000000005 7.3750000000000009 29.435000000000006 7.495000000000001 27.055000000000003 21.555000000000003 489.29500000000007 30.075000000000003 19.915000000000003 21.945000000000004 19.915000000000003
decision_type=1 2 2 2 2 2 2 1 2 2 2 2 2 2 2 2 2 1 2 2 2 2 2 2 1 2 2 2 2 2 2 2 2 1 2 2 2 2 2 2 2 2 2 2 2 2 2 2 2 2 2 2 2 2 2 2 2 2 2
left_child=1 -1 4 -2 -3 -5 -6 11 9 29 13 -7 16 14 40 26 -13 22 -16 27 33 -22 32 25 42 37 -9 28 55 -8 -28 -32 51 -18 41 36 -12 -23 39 -30 -11 47 -25 -15 52 46 -42 -33 49 -27 -49 -14 53 -45 -31 56 -20 -39 -29
right_child=3 2 -4 5 6 7 8 15 -10 10 35 12 17 43 18 -17 20 -19 19 -21 21 23 -24 24 -26 48 30 58 38 54 31 34 -34 -35 -36 -37 -38 57 -40 -41 45 -43 -44 44 -46 -47 -48 50 -50 -51 -52 -53 -54 -55 -56 -57 -58 -59 -60
leaf_value=-32.300492181473366 -57.410777013749858 -29.279674876798666 -29.53358779290981 -60.3671893043457 -29.69034243084981 -55.658456637424713 -45.600311030864724 -62.026925262345216 -30.563679428100588 70.050474797627075 71.718620390042659 -53.499465347861992 -1.3688163694715276 82.290786891222012 111.18559759627848 -62.367783411924172 -15.197482168329872 -57.132959441354522 121.74196270646721 115.8891310979806 -57.879694286005048 4.2583737732919902 -56.672059255387126 2.4525846308182255 -54.95185253121273 -3.202692962299114 -57.278141339935679 115.06246313555489 176.44560047531129 51.898953218767723 -62.081736810980445 -59.887482520318805 -60.482413772056852 -57.162902371724449 -64.22624894138194 68.094284650907852 112.40321154412831 7.4676866209405972 174.00706530570986 228.39215222459606 91.702665503730785 -60.764860482649375 -14.783116353757274 118.02341166488617 85.199274968401596 93.804073564211549 141.35889481465887 -15.976232221625539 -1.8803218858226824 -58.733456877156314 -61.23589440345765 -57.241385157793424 104.03210439768705 161.18684727755462 92.492734688128564 116.57273093156648 169.85462859655311 28.722436173543123 152.25520288852201
leaf_weight=1816 5689 285 1139 3120 228 1130 40 576 105 162 320 554 1517 385 477 1323 983 1118 203 459 257 1368 457 3659 823 523 511 203 280 155 367 155 203 410 241 486 751 649 336 586 250 176 1407 249 450 357 643 6230 4418 266 128 87 253 308 1394 228 405 2070 689
leaf_count=1816 5689 285 1139 3120 228 1130 40 576 105 162 320 554 1517 385 477 1323 983 1118 203 459 257 1368 457 3659 823 523 511 203 280 155 367 155 203 410 241 486 751 649 336 586 250 176 1407 249 450 357 643 6230 4418 266 128 87 253 308 1394 228 405 2070 689
internal_value=-0.0376062 80.2305 97.5786 -27.1451 111.126 -22.1946 114.973 -18.4264 118.215 119.766 126.27 -12.2902 -9.93652 134.38 143.035 -32.2238 -5.56117 -32.4304 154.238 160.297 -3.98344 -1.81048 -19.8916 -0.861402 -9.78107 4.79041 -27.5055 167.254 177.523 85.0568 -24.9589 -22.6956 -10.6997 -28.0686 -20.6098 90.211 100.247 17.1587 201.089 211.597 112.362 -19.0383 -2.32976 106.611 114.042 117.846 127.457 -17.9107 -4.91749 -21.9241 -16.8874 -4.39931 130.066 141.891 88.4307 143.64 153.791 23.6491 143.791
internal_weight=54057 13642 11826 40415 10687 34726 10402 31606 10174 10069 8480 21899 20769 6923 5278 9707 17387 3382 3866 3389 16833 15440 2264 15183 5889 9294 8384 2930 2038 1589 7808 7297 1807 1393 6930 1557 1071 4087 1202 866 1412 6689 5066 1645 1260 1250 893 6513 5207 789 6358 1604 810 557 1549 836 608 2719 892
internal_count=54057 13642 11826 40415 10687 34726 10402 31606 10174 10069 8480 21899 20769 6923 5278 9707 17387 3382 3866 3389 16833 15440 2264 15183 5889 9294 8384 2930 2038 1589 7808 7297 1807 1393 6930 1557 1071 4087 1202 866 1412 6689 5066 1645 1260 1250 893 6513 5207 789 6358 1604 810 557 1549 836 608 2719 892
cat_boundaries=0 1 2 3 4 5
cat_threshold=2 9 8 1 1
is_linear=0
shrinkage=0.07


Tree=3
num_leaves=60
num_cat=4
split_feature=1 2 2 2 6 4 3 1 6 6 3 2 6 2 5 4 4 1 2 2 2 2 6 4 1 3 3 3 3 6 4 4 2 2 5 4 5 4 2 2 2 3 4 4 3 3 3 4 5 5 5 6 3 5 4 3 2 4 4
split_gain=2.07703e+10 4.68732e+09 3.5946e+09 1.0698e+09 1.01888e+09 8.81498e+08 8.61086e+08 4.70624e+08 4.28864e+08 7.09145e+08 3.95332e+08 3.6099e+08 3.04466e+08 2.45136e+08 2.32064e+08 2.10421e+08 1.97939e+08 1.81265e+08 1.57145e+08 1.48901e+08 1.97113e+08 1.36069e+08 1.35356e+08 1.31052e+08 3.55076e+08 1.77856e+08 1.30101e+08 1.07599e+08 1.61173e+08 1.00811e+08 1.05812e+08 1.00041e+08 8.98747e+07 1.61157e+08 8.63498e+07 8.38416e+07 7.33635e+07 6.76979e+07 6.03762e+07 8.39606e+07 5.9463e+07 5.86886e+07 5.74305e+07 7.51676e+07 5.55504e+07 5.28506e+07 6.25888e+07 5.17993e+07 4.93832e+07 4.56735e+07 5.49441e+07 4.53492e+07 4.53385e+07 4.46307e+07 4.41437e+07 8.35799e+07 4.26541e+07 3.99331e+07 4.03827e+07
threshold=0 13.955000000000002 38.905000000000008 12.525 12.595000000000001 3.0950000000000002 2.5250000000000004 1 27.055000000000003 21.025000000000002 1.5350000000000004 36.375000000000007 37.885000000000012 32.455000000000005 157.97500000000005 20.015000000000004 30.075000000000003 2 17.895000000000003 29.965000000000003 20.035000000000004 45.675000000000004 14.595000000000001 14.025 3 5.0250000000000012 1.9850000000000001 7.9650000000000007 4.9050000000000011 8.1150000000000002 4.8350000000000009 14.025 30.075000000000003 19.915000000000003 511.84500000000008 20.985000000000003 847.5150000000001 20.015000000000004 19.915000000000003 30.075000000000003 27.995000000000001 2.9650000000000003 20.015000000000004 30.075000000000003 9.0150000000000023 8.0350000000000019 4.9050000000000011 12.155000000000003 200.01500000000001 851.70500000000015 516.47500000000014 29.435000000000006 7.495000000000001 469.94500000000005 5.9750000000000005 7.285000000000001 10.575000000000001 9.9550000000000018 5.0950000000000006
decision_type=1 2 2 2 2 2 2 1 2 2 2 2 2 2 2 2 2 1 2 2 2 2 2 2 1 2 2 2 2 2 2 2 2 2 2 2 2 2 2 2 2 2 2 2 2 2 2 2 2 2 2 2 2 2 2 2 2 2 2
left_child=1 -1 4 56 -3 -5 -6 10 9 32 -7 14 27 26 -12 47 19 21 -16 20 -17 31 -20 25 40 41 -9 28 -10 -28 -31 52 33 -8 -22 44 45 -30 -39 -40 -25 -24 -35 53 48 46 -36 -11 -32 50 -21 -50 -13 -44 55 -27 -2 58 -43
right_child=3 2 -4 5 6 7 8 13 12 15 11 17 -14 -15 18 16 -18 -19 22 49 34 -23 23 24 -26 54 29 -29 37 30 35 -33 -34 42 36 -37 -38 38 39 -41 -42 57 43 -45 -46 -47 -48 -49 51 -51 -52 -53 -54 -55 -56 -57 -58 -59 -60
leaf_value=-30.039457984190882 -56.997708813255606 -27.23009683132172 -27.466237101940028 -56.14148617690649 -27.612019138085216 -51.7623639331402 73.368795859998698 -57.685040313402816 69.001286880779276 -9.3602391004562389 -49.754503014182362 -1.2729998267639919 -28.42422095489502 -58.002038632145634 -18.72276424061549 130.72195313102321 110.51153360546961 -53.169107993917265 -54.276173715633448 91.292918975664236 136.03747424587763 -52.705015057119297 4.5430832413529174 5.1664087839871371 -53.487149022111367 -2.3599563750245816 -53.268671536249151 70.220770527259248 79.764542813360066 -57.736015480103873 -55.695358788274959 -56.248644735402081 74.293278577035437 82.083549921952354 167.01050457924293 -59.730411584624612 141.35480909509599 90.497934246033708 138.96762941803954 99.089104955963379 -11.79679200445139 10.555265066024969 81.886313805213348 83.48172570740094 -56.511320138411094 163.25433021889077 213.1955294908243 105.16164296837556 -14.857896555269704 87.588638841562101 144.32681551547478 -56.949381408691409 -53.234488164090564 133.28353277410261 -0.69116670968071114 -52.887456437844804 -43.202989733391014 9.8142879681364459 34.942072065571573
leaf_weight=1816 4202 285 1139 3120 228 1130 683 576 600 20 554 1517 105 1323 2840 589 630 1118 227 115 194 457 1291 2758 731 472 511 778 283 367 155 203 832 225 190 241 153 323 729 401 1600 446 91 220 176 222 591 598 6230 114 571 128 87 917 4123 243 1487 792 1310
leaf_count=1816 4202 285 1139 3120 228 1130 683 576 600 20 554 1517 105 1323 2840 589 630 1118 227 115 194 457 1291 2758 731 472 511 778 283 367 155 203 832 225 190 241 153 323 729 401 1600 446 91 220 176 222 591 598 6230 114 571 128 87 917 4123 243 1487 792 1310
internal_value=-0.0373624 74.6144 90.7481 -25.2481 103.347 -20.6447 106.925 -17.1406 109.94 119.717 -11.4358 -9.24718 88.8146 -29.9682 -5.17701 139.002 145.89 -30.1721 -3.7099 154.027 164.511 -18.4992 -0.662904 0.221174 -8.69717 5.45172 -25.5802 92.7678 100.277 -23.2118 -21.1069 -9.95076 93.8108 101.413 179.253 -19.1671 186.505 111.087 117.187 124.816 -1.05905 16.7022 114.596 120.553 -17.7056 193.393 201.96 101.455 -16.657 128.618 135.436 -15.7053 -4.09136 128.644 -3.47566 -19.5322 -53.392 22.8629 28.7482
internal_weight=54057 13642 11826 40415 10687 34726 10402 31606 10174 6955 21899 20769 3219 9707 17387 3987 3369 3382 16833 2739 1939 2264 13993 13766 5089 8677 8384 3114 2336 7808 7297 1807 2968 2136 1350 6930 1156 1736 1453 1130 4358 3839 1453 1228 6689 1003 781 618 6513 800 686 6358 1604 1008 4838 715 5689 2548 1756
internal_count=54057 13642 11826 40415 10687 34726 10402 31606 10174 6955 21899 20769 3219 9707 17387 3987 3369 3382 16833 2739 1939 2264 13993 13766 5089 8677 8384 3114 2336 7808 7297 1807 2968 2136 1350 6930 1156 1736 1453 1130 4358 3839 1453 1228 6689 1003 781 618 6513 800 686 6358 1604 1008 4838 715 5689 2548 1756
cat_boundaries=0 1 2 3 4
cat_threshold=2 9 8 1
is_linear=0
shrinkage=0.07


Tree=4
num_leaves=60
num_cat=4
split_feature=4 2 2 5 2 4 0 6 3 3 2 6 0 3 4 3 5 5 6 4 5 3 5 6 6 3 3 2 2 0 6 3 4 5 5 4 3 6 5 6 6 6 6 6 4 2 2 4 6 4 6 6 6 6 0 4 4 3 3
split_gain=1.13554e+10 3.55547e+09 2.15666e+09 2.07522e+09 1.22575e+09 1.0285e+09 7.97227e+08 5.75281e+08 5.19029e+08 4.9535e+08 4.69969e+08 4.6993e+08 4.30792e+08 3.43563e+08 2.84875e+08 2.66195e+08 2.46663e+08 2.1074e+08 1.96882e+08 1.50877e+08 1.5273e+08 1.50176e+08 1.42209e+08 1.40828e+08 3.20947e+08 1.1913e+08 1.25168e+08 1.00267e+08 9.79036e+07 9.59154e+07 9.54156e+07 9.34897e+07 8.95098e+07 8.36702e+07 7.41345e+07 7.2607e+07 6.68066e+07 6.66969e+07 6.48462e+07 6.41032e+07 6.30691e+07 6.14832e+07 6.03892e+07 5.83836e+07 5.52927e+07 5.50947e+07 6.37395e+07 5.27805e+07 4.87591e+07 4.57761e+07 4.46051e+07 4.43173e+07 4.41295e+07 4.3737e+07 4.25323e+07 4.11709e+07 4.01879e+07 4.01103e+07 3.8356e+07
threshold=20.615000000000006 13.955000000000002 38.905000000000008 497.01500000000004 14.125000000000002 3.0950000000000002 0 12.595000000000001 1.5350000000000004 2.4750000000000005 36.375000000000007 14.245000000000003 1 8.0050000000000008 17.715000000000003 4.995000000000001 374.07500000000005 509.45500000000004 12.595000000000001 17.405000000000005 525.7600000000001 2.5250000000000004 599.21500000000015 27.205000000000002 21.115000000000006 8.0050000000000008 4.995000000000001 10.575000000000001 44.975000000000001 2 37.555000000000007 11.945000000000002 23.855000000000004 157.97500000000005 270.36500000000007 20.015000000000004 3.8050000000000002 24.045000000000005 847.5150000000001 26.645000000000003 37.885000000000012 37.555000000000007 7.4050000000000011 24.125000000000004 30.075000000000003 20.035000000000004 27.665000000000003 4.9650000000000007 32.065000000000005 30.075000000000003 20.365000000000006 28.375000000000004 21.295000000000005 31.945000000000004 3 10.275 4.8350000000000009 11.535000000000002 4.5850000000000009
decision_type=2 2 2 2 2 2 1 2 2 2 2 2 1 2 2 2 2 2 2 2 2 2 2 2 2 2 2 2 2 1 2 2 2 2 2 2 2 2 2 2 2 2 2 2 2 2 2 2 2 2 2 2 2 2 1 2 2 2 2
left_child=4 -2 3 16 27 -6 7 -5 -7 -9 11 42 19 15 33 41 34 -16 -8 29 -21 -20 -12 24 -17 26 -23 -1 55 37 -25 39 -18 -14 -3 58 -22 -13 49 52 45 44 -10 47 50 -28 -47 -35 -45 -26 -11 -52 -15 -39 -34 -24 -29 -27 -19
right_child=1 2 -4 6 5 8 18 9 10 13 22 12 14 31 17 23 32 35 21 20 36 25 28 30 38 57 40 56 -30 -31 -32 -33 54 43 -36 -37 -38 53 -40 -41 -42 -43 -44 48 -46 46 -48 -49 -50 -51 51 -53 -54 -55 -56 -57 -58 -59 -60
leaf_value=-51.855054346855248 -32.460132202032433 -36.824217114114468 -26.950931778723799 -21.048120668788215 -51.843802090928826 -49.375264112791719 -33.462334695130259 -23.801065454441925 -54.573576254946651 85.936112122853601 -43.833378433831363 -14.475050205455901 -43.495368855956158 86.600770759009208 13.66539723823468 122.68540577818496 18.910702563025946 14.451979388027658 -34.893136675589616 -7.9146297852345606 -20.825569408123314 55.720850508708097 -0.91415078843906095 125.52618020433562 197.17439013866897 54.304499375838937 70.153389594407898 -59.582196393094932 -44.378388191522411 -20.520199520581908 -8.4093269478833239 -36.746551933288579 69.560959819927646 -31.624989497966183 6.2196626766773937 113.79211631240847 35.40983203765412 3.3914097216311192 132.11712517208522 70.119957967511382 -28.238347727457683 -15.820664520263675 -25.843865140358609 18.400546477446241 70.982072600087818 116.83328419828185 85.635475562667281 3.4262254183339507 2.0740129586719909 155.41660238180953 136.68970420429724 94.08591912034467 121.03530449360609 -11.612588217314743 31.269858885024686 -21.451670929146545 -32.161008833165873 -22.333401458740237 66.906948142430608
leaf_weight=4148 1899 314 1004 148 3009 1482 89 116 421 210 1748 3116 157 341 609 763 622 82 63 1207 117 630 1038 751 712 762 373 291 529 3566 27 28 427 227 522 150 898 3141 108 398 21 21 2415 2974 186 621 664 2897 1283 157 393 172 392 1366 303 887 2618 35 409
leaf_count=4148 1899 314 1004 148 3009 1482 89 116 421 210 1748 3116 157 341 609 763 622 82 63 1207 117 630 1038 751 712 762 373 291 529 3566 27 28 427 227 522 150 898 3141 108 398 21 21 2415 2974 186 621 664 2897 1283 157 393 172 392 1366 303 887 2618 35 409
internal_value=-0.0361279 56.2051 71.01 80.4953 -18.3378 -12.7869 96.6903 114.638 -8.9612 119.083 -6.91264 -3.27667 0.151222 122.641 12.1895 133.579 19.9415 43.1528 69.0073 -7.74058 8.91471 72.1028 -28.5753 145.635 156.705 74.2731 82.3273 -44.8676 -17.7069 -11.055 120.878 89.6079 38.4231 7.07115 -9.94754 71.1682 28.9275 -6.59172 183.272 92.736 92.3107 102.667 -30.1087 8.14674 105.256 93.8375 100.712 0.87929 13.48 189.63 113.482 123.72 105.016 -1.15606 55.0488 -10.3774 -34.9041 50.939 58.1466
internal_weight=54057 13272 11373 10369 40785 33728 8181 4923 30719 4775 29237 25035 22199 4659 8788 3500 2188 1250 3258 13411 2222 3169 4202 2518 1740 3106 2309 7057 2454 11189 778 1159 1352 7538 836 641 1015 7623 977 1131 1679 982 2836 7381 961 1658 1285 3124 4257 869 775 565 733 4507 730 1925 2909 797 491
internal_count=54057 13272 11373 10369 40785 33728 8181 4923 30719 4775 29237 25035 22199 4659 8788 3500 2188 1250 3258 13411 2222 3169 4202 2518 1740 3106 2309 7057 2454 11189 778 1159 1352 7538 836 641 1015 7623 977 1131 1679 982 2836 7381 961 1658 1285 3124 4257 869 775 565 733 4507 730 1925 2909 797 491
cat_boundaries=0 1 2 3 4
cat_threshold=21 26 18 21
is_linear=0
shrinkage=0.07


Tree=5
num_leaves=60
num_cat=10
split_feature=1 2 2 0 2 4 6 1 3 6 3 3 0 2 0 2 6 6 6 1 3 3 2 4 1 3 6 0 2 2 2 2 2 3 4 4 4 6 4 4 2 2 4 2 2 6 6 3 4 4 4 1 0 2 2 3 3 3 2
split_gain=1.61016e+10 3.57025e+09 2.65734e+09 1.02773e+09 7.97071e+08 6.50348e+08 4.49829e+08 3.78545e+08 3.67144e+08 3.55573e+08 3.1502e+08 2.97976e+08 2.87561e+08 2.5635e+08 2.34854e+08 2.07503e+08 1.69512e+08 2.85234e+08 1.4248e+08 1.36652e+08 1.34777e+08 1.35113e+08 1.26405e+08 1.25281e+08 2.63978e+08 1.5321e+08 1.14131e+08 1.01304e+08 1.0072e+08 1.26801e+08 9.36998e+07 8.16895e+07 1.10195e+08 8.04892e+07 7.88625e+07 7.37648e+07 7.12387e+07 6.88492e+07 5.86608e+07 7.9321e+07 4.874e+07 7.46463e+07 4.86365e+07 4.6719e+07 6.95426e+07 4.65222e+07 6.58499e+07 4.59302e+07 4.50911e+07 5.13813e+07 4.22174e+07 7.12998e+07 3.86529e+07 3.78744e+07 7.15786e+07 3.64748e+07 4.1246e+07 3.54203e+07 3.49132e+07
threshold=0 13.955000000000002 38.905000000000008 1 12.525 2.9050000000000007 12.595000000000001 2 2.5250000000000004 12.595000000000001 2.5250000000000004 1.5350000000000004 3 36.375000000000007 4 32.455000000000005 26.975000000000005 20.935000000000006 37.885000000000012 5 8.0050000000000008 4.995000000000001 18.025000000000002 14.025 6 4.995000000000001 37.555000000000007 7 29.965000000000003 20.145000000000003 45.675000000000004 29.965000000000003 20.555000000000003 1.9850000000000001 4.8350000000000009 14.025 20.615000000000006 8.1150000000000002 19.895000000000003 30.075000000000003 30.075000000000003 20.035000000000004 19.895000000000003 29.965000000000003 20.035000000000004 21.115000000000006 27.055000000000003 3.0150000000000001 20.255000000000006 29.505000000000006 5.9750000000000005 8 9 29.865000000000006 19.915000000000003 7.9650000000000007 4.9050000000000011 7.495000000000001 10.575000000000001
decision_type=1 2 2 1 2 2 2 1 2 2 2 2 1 2 1 2 2 2 2 1 2 2 2 2 1 2 2 1 2 2 2 2 2 2 2 2 2 2 2 2 2 2 2 2 2 2 2 2 2 2 2 1 1 2 2 2 2 2 2
left_child=1 -1 3 6 58 -6 -3 11 -8 -5 -11 -7 -13 22 18 27 17 43 20 30 21 -12 -14 25 42 47 38 33 29 -23 35 32 -19 -9 -35 57 37 -36 -18 53 41 -16 -25 44 -10 -31 -47 -24 -34 55 51 -27 -52 54 -40 56 -50 -15 -2
right_child=4 2 -4 9 5 7 8 15 16 10 14 12 13 19 40 -17 26 31 -20 -21 -22 28 23 24 -26 50 -28 -29 -30 45 -32 -33 48 34 36 -37 -38 -39 39 -41 -42 -43 -44 -45 -46 46 -48 -49 49 -51 52 -53 -54 -55 -56 -57 -58 -59 -60
leaf_value=-25.032240110116781 -49.684520972543893 -15.766427942444299 -23.282178997178622 -28.723583232949423 -49.706487384430353 -44.596130791660038 -19.100812519951301 -48.889496232813059 87.84769503866444 -25.973429250488547 71.52062371520887 -24.910403533443088 -14.713358932839956 4.1999247661784844 38.139180357862408 -52.397186036833922 72.730640653736245 135.89475641485524 -28.152615233017851 -45.638119283007768 66.480174320922259 84.919312975821285 8.2823023266442295 5.116421129033438 -49.807191651810058 -1.6065640689739895 -11.983441869735719 -32.672207992510565 81.701415123779057 104.24479216633219 -44.559907959414204 129.44012406977839 140.79986178636551 -51.03927747508407 -43.358052496438233 -48.647529403592912 -55.954367385321653 -7.9444894418277876 95.349917655819198 74.90827005529043 37.347102010511378 74.546493457427076 -12.478712496668876 85.834434880168189 131.70614669116912 151.23203634470519 111.65191687823675 26.01010633371304 172.21384362792972 149.89340202093126 14.55388363981244 -53.157289557206013 -2.0025686663042812 101.78401225506565 149.62105656142407 163.80591596279507 225.02970189547813 -48.111967049214378 -37.236246419706646
leaf_weight=1831 4174 119 1106 164 2920 1165 88 352 262 146 870 4068 2504 1188 405 1337 193 408 52 926 1047 552 1098 2705 592 441 40 3116 728 356 355 446 112 269 288 163 174 4078 167 198 511 866 1076 318 547 485 358 2059 100 128 927 180 2627 257 415 106 263 67 1501
leaf_count=1831 4174 119 1106 164 2920 1165 88 352 262 146 870 4068 2504 1188 405 1337 193 408 52 926 1047 552 1098 2705 592 441 40 3116 728 356 355 446 112 269 288 163 174 4078 167 198 511 866 1076 318 547 485 358 2059 100 128 927 180 2627 257 415 106 263 67 1501
internal_value=0.162474 65.8715 80.0172 90.6878 -22.0673 -18.0926 118.09 -15.1856 122.316 72.9364 75.6656 -10.1337 -8.2245 -4.19272 78.0475 -26.7818 125.459 135.41 86.8434 -23.9717 88.4012 95.2544 -0.438652 2.61507 -6.7622 8.20793 104.381 -22.6764 103.584 112.682 -12.3288 154.766 164.878 -16.546 -14.213 -4.34664 -12.031 -10.2805 108.165 114.76 55.2946 62.9454 0.108896 108.567 117.502 125.463 134.423 19.8444 181.557 189.203 -0.591193 -17.4307 2.35121 124.165 134.048 199.931 210.48 1.40718 -46.392
internal_weight=53994 13644 11813 10707 40350 34675 4167 31755 4048 6540 6376 22141 20976 16908 6230 9614 3960 2690 4448 2699 4396 3349 14209 11705 4373 7332 1270 8277 2479 1751 1773 1563 1117 5161 4809 1418 4540 4366 1230 1037 1782 1271 3781 1127 809 1199 843 3157 709 597 4175 621 3554 839 582 469 363 1255 5675
internal_count=53994 13644 11813 10707 40350 34675 4167 31755 4048 6540 6376 22141 20976 16908 6230 9614 3960 2690 4448 2699 4396 3349 14209 11705 4373 7332 1270 8277 2479 1751 1773 1563 1117 5161 4809 1418 4540 4366 1230 1037 1782 1271 3781 1127 809 1199 843 3157 709 597 4175 621 3554 839 582 469 363 1255 5675
cat_boundaries=0 1 2 3 4 5 6 7 8 9 10
cat_threshold=2 5 9 8 24 8 1 21 8 1
is_linear=0
shrinkage=0.07


Tree=6
num_leaves=60
num_cat=4
split_feature=1 2 2 2 6 3 4 1 6 6 3 2 6 5 2 3 3 6 2 1 4 1 3 4 4 4 4 4 4 2 3 4 4 6 4 2 5 5 2 5 3 5 3 2 2 4 3 4 3 5 6 2 2 2 2 5 3 2 2
split_gain=1.39275e+10 3.08791e+09 2.29833e+09 6.8918e+08 6.66372e+08 5.80074e+08 5.62335e+08 3.27286e+08 3.16171e+08 5.10459e+08 2.58338e+08 2.4653e+08 1.98883e+08 1.83431e+08 1.79433e+08 1.44018e+08 1.61244e+08 1.25307e+08 1.20553e+08 1.12875e+08 1.1158e+08 2.68916e+08 1.23536e+08 9.38779e+07 1.0214e+08 9.30304e+07 1.05772e+08 9.12933e+07 9.34291e+07 8.78192e+07 8.7478e+07 8.37615e+07 8.06345e+07 7.59098e+07 7.57811e+07 6.85835e+07 6.41355e+07 6.29996e+07 6.15919e+07 6.04225e+07 5.6404e+07 5.11512e+07 5.07807e+07 4.84504e+07 8.94018e+07 4.79572e+07 5.58843e+07 4.72277e+07 4.50065e+07 4.29793e+07 4.27625e+07 4.02872e+07 4.02012e+07 3.80798e+07 5.21703e+07 3.76232e+07 3.66203e+07 3.58762e+07 5.85029e+07
threshold=0 13.955000000000002 38.905000000000008 12.525 12.595000000000001 2.5250000000000004 2.9050000000000007 1 27.055000000000003 21.115000000000006 1.425 35.645000000000003 37.885000000000012 157.97500000000005 32.455000000000005 8.0050000000000008 4.995000000000001 14.935 18.025000000000002 2 14.025 3 5.6050000000000013 30.075000000000003 20.135000000000002 20.015000000000004 29.505000000000006 30.075000000000003 20.015000000000004 45.675000000000004 1.9850000000000001 14.025 4.8350000000000009 7.4050000000000011 20.985000000000003 30.075000000000003 499.42500000000007 851.70500000000015 20.035000000000004 499.42500000000007 7.9650000000000007 599.21500000000015 4.995000000000001 29.965000000000003 20.035000000000004 6.0950000000000006 7.495000000000001 19.895000000000003 9.0150000000000023 200.01500000000001 29.345000000000002 25.065000000000001 21.945000000000004 29.965000000000003 19.455000000000002 847.5150000000001 7.495000000000001 30.075000000000003 20.145000000000003
decision_type=1 2 2 2 2 2 2 1 2 2 2 2 2 2 2 2 2 2 2 1 2 1 2 2 2 2 2 2 2 2 2 2 2 2 2 2 2 2 2 2 2 2 2 2 2 2 2 2 2 2 2 2 2 2 2 2 2 2 2
left_child=1 -1 4 -2 -3 -6 -5 10 9 27 -8 13 23 -12 30 16 53 -15 -19 29 22 47 41 24 -10 -18 35 28 -7 31 -9 56 -32 -34 48 38 -30 43 -27 -26 42 -20 -41 44 -38 46 -24 -22 49 -35 51 -51 -43 54 -11 -17 -13 58 -44
right_child=3 2 -4 6 5 8 7 14 12 15 11 19 -14 17 -16 55 25 18 20 -21 21 -23 45 -25 39 26 -28 -29 36 -31 32 -33 33 34 -36 -37 37 -39 -40 40 -42 52 57 -45 -46 -47 -48 -49 -50 50 -52 -53 -54 -55 -56 -57 -58 -59 -60
leaf_value=-23.279983126740522 -43.144592102335636 -21.645906360216784 -21.65242697162719 -46.227033008346822 -21.751635275416906 53.611840379948859 -43.423955959341995 -47.831595048716757 52.016566193779695 70.694109494252643 -44.976749914948265 -1.3059515540016211 -24.577517145007267 -46.650893890327879 -48.729383119113784 95.479924339966345 98.896109185991349 -15.013072968174566 -4.5609385923277985 -40.336623398599066 3.7787888223558399 -46.975958235814026 -4.3827783943387288 46.614012005805975 55.091084281963276 130.59390551784765 105.74246793894685 48.270939344190204 54.192757308671098 -42.856012862213952 -49.519276875463035 -47.609995480219531 -47.395540001167902 -49.777102774595612 -55.099755731779958 122.95019823339045 78.105476643833413 58.979946317906624 167.36113584775194 75.995232752798884 69.339031203420191 1.1652909900201966 84.219392983966898 77.490924741105474 119.22166720154738 -0.20988744744127341 -49.027928501918979 -12.660386380816384 -49.961343834372137 -8.0434644210332191 -51.861961774324115 -20.303772055943611 19.939433350044176 73.16799703104553 118.32412734305861 53.187956676483161 -47.114953965928819 85.519079249254872 127.08931920178365
leaf_weight=1831 5675 283 1106 2920 234 473 1044 559 515 154 524 1714 102 315 1337 770 358 2907 654 1324 3015 718 348 490 259 322 397 477 241 452 406 240 393 156 232 432 394 237 728 378 442 679 223 425 757 3535 227 1196 170 4346 133 1882 3159 258 420 119 90 300 519
leaf_count=1831 5675 283 1106 2920 234 473 1044 559 515 154 524 1714 102 315 1337 770 358 2907 654 1324 3015 718 348 490 259 322 397 477 241 452 406 240 393 156 232 432 394 237 728 378 442 679 223 425 757 3535 227 1196 170 4346 133 1882 3159 258 420 119 90 300 519
internal_value=0.14857 61.2605 74.416 -20.526 84.3396 87.217 -16.8301 -14.1269 89.7193 98.1153 -9.42948 -7.7517 71.6113 -4.19359 -24.9094 114.628 121.815 -2.91797 -2.07992 -23.8443 0.698639 -7.69878 5.51041 74.7499 79.98 131.6 137.831 76.3583 81.6601 -14.8747 -21.0918 -8.75986 -19.1551 -17.4692 -15.7693 146.427 88.1191 92.6289 156.086 86.7698 91.1762 13.5345 97.9734 97.6891 105.147 -3.25949 -22.0079 -0.888125 -14.4048 -13.4773 -12.5871 -11.7483 16.618 95.5053 105.545 89.8188 -3.59132 105.946 114.205
internal_weight=53994 13644 11813 40350 10707 10424 34675 31755 10190 6962 22141 21097 3228 17277 9614 3958 3069 16753 16438 3820 13531 4929 8602 3126 2636 2237 1879 3004 2527 2496 8277 2044 7718 7312 6919 1482 2054 1813 1050 2121 1862 4492 1420 1576 1151 4110 575 4211 6687 6517 6361 6228 3838 832 574 889 1804 1042 742
internal_count=53994 13644 11813 40350 10707 10424 34675 31755 10190 6962 22141 21097 3228 17277 9614 3958 3069 16753 16438 3820 13531 4929 8602 3126 2636 2237 1879 3004 2527 2496 8277 2044 7718 7312 6919 1482 2054 1813 1050 2121 1862 4492 1420 1576 1151 4110 575 4211 6687 6517 6361 6228 3838 832 574 889 1804 1042 742
cat_boundaries=0 1 2 3 4
cat_threshold=2 9 8 1
is_linear=0
shrinkage=0.07


Tree=7
num_leaves=60
num_cat=9
split_feature=1 2 2 0 2 4 6 0 3 6 3 0 1 2 1 3 3 6 6 0 3 2 2 3 6 2 1 6 2 3 4 2 4 4 4 4 2 3 2 4 1 3 3 6 6 2 2 4 3 3 4 4 6 2 6 2 6 3 4
split_gain=1.20463e+10 2.67073e+09 1.98783e+09 8.9316e+08 5.96939e+08 4.85442e+08 3.44169e+08 2.85549e+08 2.81711e+08 2.61205e+08 2.30311e+08 2.07132e+08 1.5542e+08 1.40731e+08 1.39165e+08 1.36368e+08 2.30085e+08 1.12083e+08 1.94558e+08 1.08843e+08 1.0809e+08 1.00261e+08 1.21983e+08 9.10074e+07 7.57165e+07 7.27216e+07 7.05778e+07 6.58726e+07 6.4893e+07 5.39039e+07 5.25998e+07 5.181e+07 5.01647e+07 4.88443e+07 5.13004e+07 4.73573e+07 5.06535e+07 4.6012e+07 4.36165e+07 5.19456e+07 7.36427e+07 6.78812e+07 4.31607e+07 3.97422e+07 3.8741e+07 3.87174e+07 5.61039e+07 3.79263e+07 9.04396e+07 5.33088e+07 3.66638e+07 3.83462e+07 3.82675e+07 3.95397e+07 3.5101e+07 3.45343e+07 3.44806e+07 3.42661e+07 3.19216e+07
threshold=0 13.955000000000002 38.905000000000008 1 12.715000000000002 3.0950000000000002 12.595000000000001 2 2.5250000000000004 12.595000000000001 2.5250000000000004 3 4 34.32500000000001 5 8.0050000000000008 4.995000000000001 27.055000000000003 21.115000000000006 6 1.425 30.325000000000003 19.805000000000003 1.5350000000000004 37.885000000000012 36.185000000000009 7 14.775 32.455000000000005 8.0050000000000008 20.015000000000004 18.025000000000002 30.985000000000003 20.015000000000004 29.785000000000004 14.025 45.675000000000004 5.1450000000000005 17.295000000000005 14.025 8 5.6950000000000012 1.9850000000000001 26.895000000000003 27.435000000000006 29.965000000000003 20.255000000000006 14.025 5.995000000000001 5.4450000000000012 4.8350000000000009 20.985000000000003 7.4050000000000011 25.265000000000004 21.205000000000002 10.575000000000001 20.935000000000006 1.9850000000000001 30.075000000000003
decision_type=1 2 2 1 2 2 2 1 2 2 2 1 1 2 1 2 2 2 2 1 2 2 2 2 2 2 1 2 2 2 2 2 2 2 2 2 2 2 2 2 1 2 2 2 2 2 2 2 2 2 2 2 2 2 2 2 2 2 2
left_child=1 -1 3 6 55 -6 -3 13 -8 -5 -11 17 19 14 20 16 58 18 -12 23 -7 22 43 -9 45 38 35 -22 57 33 -24 -29 -32 -20 -35 36 -15 -27 -25 41 -41 -40 -16 56 54 46 -19 49 -49 -33 -44 52 -52 -54 -13 -2 -18 -14 -10
right_child=4 2 -4 9 5 7 8 12 15 10 11 44 28 26 42 -17 21 24 29 -21 27 -23 30 25 -26 37 -28 31 -30 -31 32 47 -34 34 -36 -37 -38 -39 39 40 -42 -43 50 -45 -46 -47 -48 48 -50 -51 51 -53 53 -55 -56 -57 -58 -59 -60
leaf_value=-21.650384251816494 -43.186482958827916 -13.147564402748557 -20.136756906149134 -25.197719022413583 -41.99924635084097 -36.469790493055839 -16.241140805577693 -39.136793411317271 92.850077933499762 -22.63267460336424 61.673207464466003 38.759157046618768 -46.762606131443292 3.6029301683443817 -41.693373676528282 86.383135355288374 97.495642927222804 45.325282661292867 74.186456513361506 -23.51599157556436 -43.477033379021591 105.267145921997 115.67085216956225 -18.834144996238379 -24.461506211757662 -8.9773341516421752 -34.049943033960844 -5.8264534245378217 -47.027005107295416 75.17939183504788 164.63226787757162 24.595829618201346 115.75258759163194 117.52136099511617 79.192579135431501 -45.510592265350148 -37.172072739574794 -34.533463432981485 10.607646572348298 -6.3908899262916172 -42.949112298078603 -8.1166291744391064 -42.939755921159055 81.657183079395779 29.168459899509166 43.285054750649628 81.11119755663303 -32.226980691283359 9.2510050507127808 6.6248829730324026 -41.036513415294088 -49.287858730006867 0.23959679810773762 -17.308469366017565 62.22806002864651 -31.27814786935124 142.32542656228094 -23.620803136296818 57.381126679900476
leaf_weight=1831 4174 119 1106 164 3104 301 88 493 704 146 1289 555 337 852 234 897 144 322 220 4241 127 612 167 1010 52 636 1033 1176 777 405 803 1526 118 905 211 151 181 755 2038 2019 304 1775 163 162 513 400 644 306 1628 1721 157 111 1911 938 714 1671 202 4500 151
leaf_count=1831 4174 119 1106 164 3104 301 88 493 704 146 1289 555 337 852 234 897 144 322 220 4241 127 612 167 1010 52 636 1033 1176 777 405 803 1526 118 905 211 151 181 755 2038 2019 304 1775 163 162 513 400 644 306 1628 1721 157 111 1911 938 714 1671 202 4500 151
internal_value=0.137038 56.9723 69.2069 78.4358 -19.0907 -15.5912 103.936 -12.9807 107.634 61.9348 64.2731 66.3098 -18.4123 -4.76675 -1.3267 110.387 117.417 74.5187 82.2878 -14.254 4.53023 129.355 138.592 -9.88286 58.4431 -8.20506 -20.7689 6.44052 -28.1993 97.5503 151.816 7.43777 158.37 104.332 110.275 -8.81955 -3.54158 -22.8486 -5.35464 -3.13588 -11.3875 1.89126 -12.6125 110.271 45.1482 61.5991 69.1826 10.4485 2.6883 15.0707 -10.5763 -8.88391 -7.39195 -5.5379 51.9639 -39.7821 123.668 -25.2331 86.586
internal_weight=53994 13644 11813 10707 40350 34505 4167 31401 4048 6540 6376 6230 18885 12516 10299 3960 3063 4448 3030 13271 6785 2208 1596 9030 1418 8537 2217 6484 5614 1741 1088 6357 921 1336 1116 1184 1033 1391 7146 6136 2323 3813 3514 508 1782 1366 966 5181 1934 3247 3280 3117 3006 2849 1269 5845 346 4837 855
internal_count=53994 13644 11813 10707 40350 34505 4167 31401 4048 6540 6376 6230 18885 12516 10299 3960 3063 4448 3030 13271 6785 2208 1596 9030 1418 8537 2217 6484 5614 1741 1088 6357 921 1336 1116 1184 1033 1391 7146 6136 2323 3813 3514 508 1782 1366 966 5181 1934 3247 3280 3117 3006 2849 1269 5845 346 4837 855
cat_boundaries=0 1 2 3 4 5 6 7 8 9
cat_threshold=2 5 5 24 9 9 18 8 1
is_linear=0
shrinkage=0.07


Tree=8
num_leaves=60
num_cat=8
split_feature=1 2 2 0 2 4 6 1 5 2 5 0 2 2 2 6 5 6 4 4 6 6 0 2 6 4 1 2 6 6 1 6 6 4 4 6 5 4 4 4 1 4 6 5 4 2 6 6 4 4 2 5 2 2 5 4 2 6 6
split_gain=1.04194e+10 2.30992e+09 1.71927e+09 7.85591e+08 5.16724e+08 4.1039e+08 3.68765e+08 2.43964e+08 2.26316e+08 2.24593e+08 1.86806e+08 1.83854e+08 1.50363e+08 2.32617e+08 1.44639e+08 1.39446e+08 1.08758e+08 9.67242e+07 8.89364e+07 9.2267e+07 8.30338e+07 1.08906e+08 7.59306e+07 7.36603e+07 7.35622e+07 7.25041e+07 6.70041e+07 6.1463e+07 5.34808e+07 9.61652e+07 4.98854e+07 4.98437e+07 6.67024e+07 4.9421e+07 4.89351e+07 4.47491e+07 4.40028e+07 4.38274e+07 4.59144e+07 4.37586e+07 4.49387e+07 4.32331e+07 4.2078e+07 4.01336e+07 3.67438e+07 3.44887e+07 3.33648e+07 5.98041e+07 2.85138e+07 2.52765e+07 2.4872e+07 2.48625e+07 2.48042e+07 4.12456e+07 2.43281e+07 2.34676e+07 2.28755e+07 2.27917e+07 3.42985e+07
threshold=0 13.955000000000002 38.905000000000008 1 14.895000000000001 2.9050000000000007 12.595000000000001 2 851.70500000000015 34.975000000000001 499.42500000000007 3 30.075000000000003 20.035000000000004 32.455000000000005 12.595000000000001 138.28000000000003 37.555000000000007 20.015000000000004 30.075000000000003 27.055000000000003 21.025000000000002 4 10.575000000000001 15.115 11.315000000000003 5 45.675000000000004 21.025000000000002 27.055000000000003 6 32.065000000000005 24.045000000000005 4.705000000000001 30.075000000000003 37.885000000000012 270.36500000000007 20.135000000000002 30.075000000000003 13.775 7 20.615000000000006 8.1150000000000002 599.21500000000015 20.015000000000004 25.065000000000001 26.975000000000005 21.025000000000002 30.365000000000006 5.9750000000000005 36.545000000000009 499.42500000000007 19.685000000000006 29.965000000000003 851.70500000000015 12.725000000000003 22.035000000000004 30.495000000000001 19.895000000000003
decision_type=1 2 2 1 2 2 2 1 2 2 2 1 2 2 2 2 2 2 2 2 2 2 1 2 2 2 1 2 2 2 1 2 2 2 2 2 2 2 2 2 1 2 2 2 2 2 2 2 2 2 2 2 2 2 2 2 2 2 2
left_child=1 -1 3 6 23 -6 -3 9 10 11 36 16 13 46 22 -5 -7 18 55 28 21 51 33 -2 -18 27 49 30 -20 -30 -11 32 -26 -9 44 48 -8 -23 52 43 -41 42 -35 -13 -14 -44 47 -12 -22 -25 -27 -17 -39 -54 -53 -15 -45 58 -46
right_child=4 2 -4 15 5 7 8 14 -10 25 12 39 34 17 -16 20 24 -19 19 -21 35 37 -24 26 31 50 -28 -29 29 -31 -32 -33 -34 41 -36 -37 -38 38 -40 40 -42 -43 45 56 57 -47 -48 -49 -50 -51 -52 54 53 -55 -56 -57 -58 -59 -60
leaf_value=-20.134857634479463 -40.163429502468681 -12.828090580374178 -18.727184063711125 -27.719586410820487 -39.619168967552724 -44.479690372242651 -38.170983898162845 -43.633182269983131 56.386395869369466 -4.351321045979172 68.959285889921418 -17.138303419596781 61.234700679010693 21.238913054032761 -42.512616059667778 16.036179145482873 -38.833466084942678 -4.9334689120588635 117.08874694721575 96.386603393604233 43.524436105890011 44.044922818477509 -26.658974098570635 -42.002902556977624 -2.1779984117486624 -16.798967247184031 -47.097834269968295 -38.053583067744619 163.30559285555131 121.65480626552369 -36.504752384454783 -4.6233958953629184 11.883664973256481 -35.668278501745483 50.975982867285275 -30.205164632492878 67.047209639922301 59.373048457647393 48.140960629442709 -15.952918343232785 -42.51869565324634 -46.139348377758949 -2.2332659562569881 -13.861632923353552 72.596083814656993 -16.077992647822636 64.964348924173791 108.63021698126254 12.862692376499952 -20.200810641503381 -35.720297935649043 49.7250496472005 96.959867239795173 65.726538811402648 15.328618386445848 95.928467321955466 1.5769861688754794 65.631041296974573 106.77382629394532
leaf_weight=1831 4174 171 1106 112 2767 238 20 228 792 1837 332 1529 211 22 1337 156 198 29 475 337 1093 270 2754 287 2506 440 657 415 624 481 263 2344 4856 268 215 47 743 211 256 2101 372 158 2563 645 192 1344 346 424 172 2829 1504 930 591 319 113 327 1736 122 574
leaf_count=1831 4174 171 1106 112 2767 238 20 228 792 1837 332 1529 211 22 1337 156 198 29 475 337 1093 270 2754 287 2506 440 657 415 624 481 263 2344 4856 268 215 47 743 211 256 2101 372 158 2563 645 192 1344 346 424 172 2829 1504 930 591 319 113 327 1736 122 574
internal_value=0.126059 52.9842 64.3624 72.9453 -17.7562 -13.8376 88.4556 -11.4305 91.3608 -7.34017 96.4211 -3.58183 101.625 109.403 -21.3178 49.2412 2.27902 122.096 123.722 129.639 51.4327 58.149 -17.4731 -33.7561 3.40496 -21.285 -26.6677 -13.4373 136.732 145.175 -8.57271 4.26662 7.09712 -11.8421 81.5175 36.8635 64.2892 69.8324 74.8888 -12.8776 -20.1855 -10.1966 -8.83635 -8.28838 87.4924 -6.99582 82.9686 91.2086 39.3554 -22.1379 -31.4377 42.1001 80.9971 86.011 45.9985 91.2202 -2.60525 93.7315 98.2071
internal_weight=53994 13644 11813 10707 40350 32403 6437 29636 6266 20984 5474 16525 4711 3397 8652 4270 10142 2295 2266 1917 4158 2846 7315 7947 9904 4459 3773 2515 1580 1105 2100 9706 7362 4561 1314 1312 763 1647 1377 6383 2473 4333 4175 3910 1099 3907 1102 756 1265 3116 1944 1199 1121 910 1043 349 2381 888 766
internal_count=53994 13644 11813 10707 40350 32403 6437 29636 6266 20984 5474 16525 4711 3397 8652 4270 10142 2295 2266 1917 4158 2846 7315 7947 9904 4459 3773 2515 1580 1105 2100 9706 7362 4561 1314 1312 763 1647 1377 6383 2473 4333 4175 3910 1099 3907 1102 756 1265 3116 1944 1199 1121 910 1043 349 2381 888 766
cat_boundaries=0 1 2 3 4 5 6 7 8
cat_threshold=2 21 9 7 21 5 8 1
is_linear=0
shrinkage=0.07


Tree=9
num_leaves=60
num_cat=11
split_feature=1 0 6 4 3 1 0 0 3 5 6 3 3 4 4 6 4 1 3 3 3 3 0 3 3 4 4 4 3 3 6 4 4 4 0 4 1 5 5 5 5 0 3 5 6 6 6 3 6 6 5 4 4 0 6 6 5 6 5
split_gain=9.01258e+09 6.36836e+08 3.45997e+08 3.2774e+08 3.22285e+08 2.53549e+08 1.86012e+08 1.84321e+08 1.69348e+08 1.34305e+08 1.19e+08 1.04707e+08 1.23501e+08 9.55541e+07 1.26643e+08 9.34527e+07 9.17947e+07 2.07676e+08 1.5477e+08 9.11062e+07 1.03698e+08 6.72438e+07 6.71366e+07 6.64089e+07 8.15966e+07 5.63389e+07 6.39857e+07 5.54158e+07 5.54003e+07 4.70592e+07 4.69689e+07 4.79024e+07 4.69936e+07 4.61065e+07 4.51072e+07 4.03552e+07 6.85716e+07 4.00467e+07 5.05003e+07 3.71045e+07 3.63926e+07 3.35262e+07 3.3471e+07 3.30677e+07 3.06567e+07 7.2152e+07 2.93583e+07 2.95354e+07 2.80073e+07 4.80452e+07 2.69789e+07 2.62792e+07 3.41416e+07 2.61227e+07 2.4901e+07 2.53084e+07 2.48555e+07 2.30254e+07 2.2335e+07
threshold=0 1 12.595000000000001 2.9050000000000007 2.4750000000000005 2 3 4 1.5350000000000004 157.97500000000005 12.595000000000001 4.995000000000001 8.0050000000000008 29.785000000000004 20.015000000000004 14.935 14.025 5 4.995000000000001 7.9650000000000007 4.995000000000001 1.9850000000000001 6 8.0050000000000008 4.995000000000001 30.365000000000006 20.015000000000004 12.005000000000001 2.5250000000000004 3.0150000000000001 8.1150000000000002 4.8350000000000009 20.985000000000003 20.015000000000004 7 5.9750000000000005 8 847.5150000000001 528.1350000000001 876.50500000000011 749.94000000000017 9 7.495000000000001 596.60000000000014 27.125000000000004 21.115000000000006 29.345000000000002 9.0150000000000023 26.735000000000003 21.025000000000002 200.01500000000001 20.495000000000001 30.985000000000003 10 26.645000000000003 20.465000000000003 953.11500000000012 27.735000000000003 601.43500000000006
decision_type=1 1 2 2 2 1 1 1 2 2 2 2 2 2 2 2 2 1 2 2 2 2 1 2 2 2 2 2 2 2 2 2 2 2 1 2 1 2 2 2 2 1 2 2 2 2 2 2 2 2 2 2 2 1 2 2 2 2 2
left_child=1 2 -1 -2 -4 7 19 -5 -9 -10 -3 28 34 14 27 -11 18 33 29 20 -6 -7 30 24 -16 26 -22 -8 -12 -17 -23 -32 46 40 51 36 42 38 -26 48 53 -37 -20 -31 45 -40 47 50 49 -28 -33 -13 -53 -18 55 -27 -45 -21 -52
right_child=3 10 4 5 6 21 13 8 9 15 11 12 -14 -15 23 16 17 -19 35 57 25 22 -24 -25 37 54 39 -29 -30 43 31 32 -34 -35 -36 41 -38 -39 44 -41 -42 -43 -44 56 -46 -47 -48 -49 -50 -51 58 52 -54 -55 -56 -57 -58 -59 -60
leaf_value=-22.71520381465103 -38.081693491081566 -32.612768718826942 -30.310186373229662 -22.917962603363836 64.518668281808914 -42.368553423038676 -60.32291429025156 -35.592574216802838 -40.047693733507458 -41.080843025586788 -33.374432022614918 35.333701073806317 18.685136968537101 37.432990677122056 54.038199382231738 -0.55625425092053582 4.232864670696741 -41.725851561874158 -1.977989533491801 67.802848789964258 70.711145121770755 -38.151673311483989 -28.465374545829849 51.20786402424654 60.144446628710455 42.82922141697096 102.95842620277853 41.595123501371447 18.793897300869506 -3.9551921656054838 -40.522987534266257 -43.197447788151166 -45.352808582700533 -16.125116403059707 34.257602028718019 4.0956045464184658 -48.982388387389108 55.648336738350338 75.627862059736245 66.201336854986252 -58.218636169433601 -8.4476234504005632 -45.978523954141018 19.440182522253028 75.25453976784064 114.61843611743764 -46.179714215792146 -43.236056089274086 100.06552700173287 143.08943651697345 -8.4758570147715346 62.279303108137782 29.750154245981104 -6.794444472007056 30.435393412149317 108.61385594895012 -0.47308823042483245 37.753761227284258 -18.345069029016965
leaf_weight=231 3182 142 173 4773 545 809 27 1006 555 347 110 313 1202 889 738 1667 2049 913 587 464 204 495 4317 832 317 46 250 822 1070 434 364 131 232 1593 1268 1393 285 257 404 74 56 4127 99 2364 414 548 130 150 294 352 4269 1162 183 2145 66 76 353 171 1525
leaf_count=231 3182 142 173 4773 545 809 27 1006 555 347 110 313 1202 889 738 1667 2049 913 587 464 204 495 4317 832 317 46 250 822 1070 434 364 131 232 1593 1268 1393 285 257 404 74 56 4127 99 2364 414 548 130 150 294 352 4269 1162 183 2145 66 76 353 171 1525
internal_value=0.114992 49.2753 61.6632 -16.5163 64.1884 -14.6745 66.287 -10.5635 -7.60113 -6.12049 30.5715 32.3194 37.5758 58.2375 62.6141 -5.09781 -4.40663 -10.8625 -0.549888 82.3523 90.3233 -22.8371 -21.4961 68.4822 73.849 100.649 106.346 38.3539 13.9307 8.95512 -17.3097 -15.8182 -14.4212 -5.95833 45.3361 -7.60506 -20.7649 81.3852 85.3153 113.84 -2.1616 -5.29016 -8.20827 13.987 91.1566 98.072 -13.2647 -12.5603 117.775 126.424 -11.7837 53.2807 57.8534 -1.4131 65.072 83.8098 16.853 59.7109 -11.0735
internal_weight=53994 13644 8194 40350 7963 37168 7790 24746 19973 18967 5450 5308 4128 5248 4359 18412 18065 6756 11309 2542 1907 12422 11613 3510 2678 1362 1174 849 1180 4818 7296 6801 6437 5843 2926 6491 971 1940 1683 970 4250 5520 686 3151 1366 952 6205 6075 896 602 5925 1658 1345 4194 188 122 2717 635 5794
internal_count=53994 13644 8194 40350 7963 37168 7790 24746 19973 18967 5450 5308 4128 5248 4359 18412 18065 6756 11309 2542 1907 12422 11613 3510 2678 1362 1174 849 1180 4818 7296 6801 6437 5843 2926 6491 971 1940 1683 970 4250 5520 686 3151 1366 952 6205 6075 896 602 5925 1658 1345 4194 188 122 2717 635 5794
cat_boundaries=0 1 2 3 4 5 6 7 8 9 10 11
cat_threshold=2 21 9 1 8 1 21 8 8 1 5
is_linear=0
shrinkage=0.07


Tree=10
num_leaves=60
num_cat=8
split_feature=1 2 2 0 2 3 6 3 0 3 6 0 6 3 3 2 6 2 2 6 1 2 2 6 1 5 1 5 2 5 6 2 2 2 2 5 5 0 5 2 5 6 3 5 5 5 2 3 6 6 3 3 6 6 6 3 2 2 5
split_gain=7.71907e+09 1.92933e+09 1.53654e+09 6.61593e+08 4.49736e+08 2.39955e+08 2.20752e+08 2.11664e+08 2.005e+08 1.77361e+08 1.76687e+08 1.32929e+08 1.23487e+08 1.13357e+08 2.01387e+08 1.05738e+08 1.02537e+08 8.98531e+07 1.40925e+08 8.37294e+07 8.02845e+07 7.87735e+07 9.26638e+07 5.68942e+07 5.95926e+07 5.58091e+07 5.42478e+07 5.10311e+07 5.0407e+07 4.90351e+07 4.48765e+07 4.41754e+07 4.69164e+07 4.38351e+07 4.33894e+07 3.88803e+07 3.87545e+07 3.618e+07 3.57749e+07 4.86338e+07 4.55983e+07 3.42753e+07 3.30838e+07 3.26531e+07 3.20732e+07 4.13649e+07 3.16199e+07 3.1308e+07 2.9323e+07 5.79666e+07 2.71572e+07 3.33653e+07 2.61277e+07 5.06204e+07 2.45944e+07 2.41721e+07 2.412e+07 3.82622e+07 2.38954e+07
threshold=0 13.955000000000002 38.905000000000008 1 12.525 2.4750000000000005 12.595000000000001 1.5350000000000004 2 2.5250000000000004 12.595000000000001 3 37.555000000000007 8.0050000000000008 4.9650000000000007 36.375000000000007 37.555000000000007 29.865000000000006 20.035000000000004 23.965000000000003 4 30.325000000000003 19.805000000000003 32.065000000000005 5 138.28000000000003 6 851.70500000000015 35.475000000000001 497.01500000000004 14.775 29.965000000000003 19.575000000000003 32.455000000000005 32.585000000000008 157.97500000000005 486.95500000000004 7 499.42500000000007 15.325000000000001 300.73500000000007 13.055000000000001 5.1150000000000011 847.5150000000001 855.5200000000001 499.42500000000007 45.675000000000004 11.245000000000003 26.895000000000003 22.155000000000005 8.0050000000000008 10.005000000000001 27.055000000000003 21.025000000000002 7.4050000000000011 4.995000000000001 30.205000000000002 19.805000000000003 851.70500000000015
decision_type=1 2 2 1 2 2 2 2 1 2 2 1 2 2 2 2 2 2 2 2 1 2 2 2 1 2 1 2 2 2 2 2 2 2 2 2 2 1 2 2 2 2 2 2 2 2 2 2 2 2 2 2 2 2 2 2 2 2 2
left_child=1 -1 3 5 -2 -3 -7 -6 15 -5 -11 16 13 14 44 20 17 18 -12 33 25 22 58 24 28 -9 46 29 35 -20 -27 32 -13 41 54 -21 -24 -37 40 -40 -32 -10 -41 -38 45 -8 -17 56 49 -31 -42 -52 53 -19 -22 -30 57 -15 -16
right_child=4 2 -4 9 7 6 12 8 19 10 11 31 -14 47 21 26 -18 52 27 23 34 -23 36 -25 -26 30 -28 -29 55 48 38 -33 -34 -35 -36 37 43 -39 39 42 50 -43 -44 -45 -46 -47 -48 -49 -50 -51 51 -53 -54 -55 -56 -57 -58 -59 -60
leaf_value=-22.090476523810068 -33.581085290161113 -23.058367818763948 -21.518284069589328 -26.292420197904928 -35.634148603697334 -7.9893107342720038 34.137018865203864 -37.911080278143835 -28.44652267892938 -17.825976411008288 46.295108567853838 22.921431267196187 -21.110679072116284 55.070130353193541 98.909945570271404 -3.7169675908612443 -24.224379335348161 33.519185653899584 54.080395942529051 -37.589846634774837 -34.363197334607449 89.501416571762334 88.72570074563076 -19.177686314815194 -28.056293872002012 -35.844123077123939 -34.75816719559004 48.718727658816753 -8.6434734955163286 78.179403636330065 -3.6349148731677867 19.780205570457081 52.757444978643932 -30.876718972969805 -37.437731588711081 1.4365676954935633 139.67144408611304 -10.620606599269911 -29.922661589473606 7.5023702159985888 4.2503539331605182 -15.939593958253882 -5.1281060772837641 101.87238879965258 37.023223346862636 82.702553735317863 -33.910264958663731 9.5090461491927147 73.488836801898557 110.87756582509472 31.01433317788484 9.0103310085545871 31.873040993190454 67.113325275815953 -6.8996592454284116 -27.303779629715333 54.449598971596274 93.041448123854352 47.824852922058106
leaf_weight=1792 5746 96 1136 146 1826 112 100 166 1324 174 963 365 47 190 437 841 69 376 252 159 168 619 99 3359 672 142 732 245 648 551 863 522 883 1686 269 3753 849 1796 253 2213 694 5679 1879 129 122 611 213 39 507 513 761 607 411 529 3265 716 231 412 50
leaf_count=1792 5746 96 1136 146 1826 112 100 166 1324 174 963 365 47 190 437 841 69 376 252 159 168 619 99 3359 672 142 732 245 648 551 863 522 883 1686 269 3753 849 1796 253 2213 694 5679 1879 129 122 611 213 39 507 513 761 607 411 529 3265 716 231 412 50
internal_value=-0.101908 45.5458 55.8691 64.1245 -15.4385 86.1134 88.9159 -12.4374 -11.1483 49.913 51.7408 53.6976 91.6741 93.0375 99.4644 -4.40602 60.3021 61.7825 68.4139 -15.5892 -1.90369 110.638 119.003 -11.5694 -8.2692 2.22687 -20.2348 78.7138 -6.34034 82.745 3.12881 36.6721 44.0314 -20.7437 -10.3371 -3.46037 130.461 -2.48243 3.89004 -0.138872 9.87487 -18.3042 1.7026 134.686 70.1822 75.872 -9.72637 70.8086 87.343 93.9446 15.5291 21.2509 46.5091 53.156 -8.24364 -18.4388 73.6786 81.0571 93.6651
internal_weight=54007 13577 11785 10649 40430 4143 4047 34684 32858 6506 6360 6186 3935 3888 3016 13066 4416 4347 3031 19792 11280 2183 1564 11103 7744 7578 1786 2068 7072 1823 7412 1770 1248 8689 3702 5708 1077 5549 7270 4345 2925 7003 4092 978 833 711 1054 872 1571 1064 2062 1368 1316 905 3433 1364 833 602 487
internal_count=54007 13577 11785 10649 40430 4143 4047 34684 32858 6506 6360 6186 3935 3888 3016 13066 4416 4347 3031 19792 11280 2183 1564 11103 7744 7578 1786 2068 7072 1823 7412 1770 1248 8689 3702 5708 1077 5549 7270 4345 2925 7003 4092 978 833 711 1054 872 1571 1064 2062 1368 1316 905 3433 1364 833 602 487
cat_boundaries=0 1 2 3 4 5 6 7 8
cat_threshold=2 5 5 24 9 9 8 18
is_linear=0
shrinkage=0.07


Tree=11
num_leaves=60
num_cat=10
split_feature=1 2 2 0 2 3 6 3 0 3 6 0 6 5 5 3 3 2 6 3 3 6 1 2 2 2 2 2 5 6 1 1 6 2 2 2 2 5 0 5 2 5 3 5 6 2 3 3 3 2 1 6 6 5 5 3 0 6 6
split_gain=6.67651e+09 1.66868e+09 1.32895e+09 5.72212e+08 3.89524e+08 2.07537e+08 1.90928e+08 1.82742e+08 1.72025e+08 1.534e+08 1.52817e+08 1.1497e+08 1.06804e+08 1.00897e+08 1.12319e+08 1.1067e+08 1.17636e+08 9.22846e+07 8.88479e+07 7.91806e+07 8.66911e+07 7.30831e+07 6.92002e+07 5.56952e+07 7.30779e+07 5.24384e+07 5.23984e+07 5.0025e+07 4.75482e+07 4.74426e+07 5.67603e+07 4.70532e+07 3.91164e+07 3.82073e+07 4.0578e+07 3.81553e+07 3.76863e+07 3.73208e+07 3.52208e+07 3.2114e+07 4.11137e+07 3.89713e+07 2.97365e+07 4.27902e+07 2.93595e+07 2.75239e+07 2.68018e+07 2.39253e+07 2.92313e+07 2.36408e+07 5.1374e+07 2.25934e+07 3.4612e+07 2.22556e+07 2.43203e+07 2.18569e+07 2.16676e+07 2.15e+07 3.22557e+07
threshold=0 13.955000000000002 38.905000000000008 1 12.715000000000002 2.4750000000000005 12.595000000000001 1.5350000000000004 2 2.5250000000000004 12.595000000000001 3 37.555000000000007 499.42500000000007 851.70500000000015 8.0050000000000008 5.0250000000000012 36.375000000000007 36.955000000000005 8.0050000000000008 4.995000000000001 23.965000000000003 4 29.965000000000003 20.145000000000003 30.325000000000003 20.145000000000003 44.975000000000001 138.28000000000003 32.065000000000005 5 6 14.425000000000002 29.965000000000003 19.575000000000003 32.455000000000005 32.585000000000008 157.97500000000005 7 499.42500000000007 15.325000000000001 300.73500000000007 7.1950000000000012 718.75500000000011 13.055000000000001 44.975000000000001 11.535000000000002 8.0050000000000008 10.005000000000001 10.315000000000003 8 20.935000000000006 27.285000000000004 489.29500000000007 851.70500000000015 5.4450000000000012 9 21.465000000000003 26.975000000000005
decision_type=1 2 2 1 2 2 2 2 1 2 2 1 2 2 2 2 2 2 2 2 2 2 1 2 2 2 2 2 2 2 1 1 2 2 2 2 2 2 1 2 2 2 2 2 2 2 2 2 2 2 1 2 2 2 2 2 1 2 2
left_child=1 -1 3 5 49 -3 -7 -6 17 -5 -11 18 13 55 15 16 51 22 19 20 53 35 28 24 -22 26 -18 29 -9 30 37 45 -30 34 -13 44 -24 -23 -39 41 -41 -34 -42 -44 -10 -19 -17 -43 -49 -2 -51 -15 -53 -12 -55 -8 -46 -26 -59
right_child=4 2 -4 9 7 6 12 8 21 10 11 33 -14 14 -16 46 25 31 -20 -21 23 27 36 -25 57 -27 -28 -29 32 -31 -32 -33 39 -35 -36 -37 -38 38 -40 40 42 47 43 -45 56 -47 -48 48 -50 50 -52 52 -54 54 -56 -57 -58 58 -60
leaf_value=-20.544143255222593 -33.946301818120347 -21.444282120764257 -20.012004299826501 -24.451950808461397 -33.103575466693599 -7.430059174001217 31.809657382341534 -35.136475102494408 -26.408941613842803 -16.578158386685384 12.360375786849431 21.316930867573987 -19.632931634618881 56.760459358536686 58.752142526706066 73.0094549850173 100.0349985786948 -2.9725474663300564 -15.976704669347624 40.766870676523091 55.363015026315288 -36.133940355501132 -7.5995871740395051 53.206867248661382 72.399132230866641 92.710481525636141 131.00094598856998 -35.265496992369755 -36.335813794995921 -16.896208255935864 -26.069708075799358 -32.357886288660879 -3.2275277020078956 18.395590973270352 49.064423853802928 -28.715348736946325 -34.817090308406982 -0.35912488916075336 -11.260126727272745 -28.465851936340332 4.6773467856832669 3.9372669788037045 -2.1890440099801087 -40.209158586819967 -11.752581979007521 -29.907697508800084 -7.3661781501770029 29.073949014482448 8.4472132404087006 -11.55001892362263 -35.219788005881838 101.83376052723499 62.371760437762163 53.020335657093597 17.690432831272485 65.50198647235716 -21.287433538161121 105.60281260716835 77.3913063953473
leaf_weight=1792 4055 96 1136 146 1820 112 130 164 1312 174 98 365 47 184 465 636 404 813 82 1043 548 181 3400 714 371 458 794 391 122 3204 666 732 856 522 883 1686 269 4464 2146 238 3178 691 747 180 3882 241 21 759 605 872 998 269 183 647 112 344 1758 437 364
leaf_count=1792 4055 96 1136 146 1820 112 130 164 1312 174 98 365 47 184 465 636 404 813 82 1043 548 181 3400 714 371 458 794 391 122 3204 666 732 856 522 883 1686 269 4464 2146 238 3178 691 747 180 3882 241 21 759 605 872 998 269 183 647 112 344 1758 437 364
internal_value=-0.0957077 42.3576 51.9582 59.6358 -14.3591 80.0855 82.6918 -11.5155 -10.3134 46.4191 48.119 49.9388 85.2569 86.5248 90.7266 95.7683 103.029 -4.05085 56.0809 57.5737 62.9001 -14.4371 -1.69929 69.6416 76.4639 112.856 120.558 -10.6742 2.14001 -9.77229 -6.7114 -18.832 2.97173 34.1051 40.9492 -19.2683 -9.56901 -4.7675 -3.91582 3.63282 -0.18032 9.32174 1.45962 -9.57159 -16.9772 -9.04552 70.4404 14.5491 19.925 -30.9436 -24.4324 77.4391 85.8569 43.7536 47.807 56.2615 -14.7832 86.3302 92.7826
internal_weight=54007 13577 11785 10649 40430 4143 4047 34505 32685 6506 6360 6186 3935 3888 3414 2949 2292 12995 4416 4334 3291 19690 11209 2434 1720 1656 1198 11052 7540 10661 7457 1786 7376 1770 1248 8638 3669 6791 6610 7254 4343 2911 4105 927 6952 1054 657 2055 1364 5925 1870 636 452 857 759 474 5640 1172 801
internal_count=54007 13577 11785 10649 40430 4143 4047 34505 32685 6506 6360 6186 3935 3888 3414 2949 2292 12995 4416 4334 3291 19690 11209 2434 1720 1656 1198 11052 7540 10661 7457 1786 7376 1770 1248 8638 3669 6791 6610 7254 4343 2911 4105 927 6952 1054 657 2055 1364 5925 1870 636 452 857 759 474 5640 1172 801
cat_boundaries=0 1 2 3 4 5 6 7 8 9 10
cat_threshold=2 5 5 24 9 9 8 18 4 18
is_linear=0
shrinkage=0.07


Tree=12
num_leaves=60
num_cat=8
split_feature=1 2 2 0 2 3 2 6 3 0 3 6 2 2 6 6 6 1 1 6 5 5 5 2 6 5 5 2 1 0 3 3 5 6 6 3 3 6 6 2 2 3 3 3 2 5 5 5 2 6 6 1 2 5 3 2 3 3 2
split_gain=5.77508e+09 1.44505e+09 1.15492e+09 4.91373e+08 3.43731e+08 1.8016e+08 1.69632e+08 1.65877e+08 1.4211e+08 1.31814e+08 1.31443e+08 1.34191e+08 1.03292e+08 1.41432e+08 1.00416e+08 1.85438e+08 6.75649e+07 6.15909e+07 5.93914e+07 5.34486e+07 5.3042e+07 5.79109e+07 5.28722e+07 5.2835e+07 5.19682e+07 4.92058e+07 5.47998e+07 4.80389e+07 6.15671e+07 4.61588e+07 3.99987e+07 4.8931e+07 3.9643e+07 3.58867e+07 4.91912e+07 3.5819e+07 5.31723e+07 3.39041e+07 6.73095e+07 3.31174e+07 4.7701e+07 3.17948e+07 2.74841e+07 2.68568e+07 2.60977e+07 2.51017e+07 2.48366e+07 2.45882e+07 2.41205e+07 2.37852e+07 2.11895e+07 2.08291e+07 3.26081e+07 2.23118e+07 3.08606e+07 2.69204e+07 2.06363e+07 2.3813e+07 1.96537e+07
threshold=0 14.125000000000002 38.905000000000008 1 15.025 2.4750000000000005 34.975000000000001 12.595000000000001 1.9850000000000001 2 2.5250000000000004 12.845000000000001 29.965000000000003 20.035000000000004 26.975000000000005 20.935000000000006 37.885000000000012 3 4 37.885000000000012 851.70500000000015 499.42500000000007 138.28000000000003 44.975000000000001 13.055000000000001 859.28000000000009 486.95500000000004 10.575000000000001 5 6 8.0050000000000008 4.9350000000000014 200.01500000000001 27.205000000000002 21.025000000000002 8.2250000000000032 4.9650000000000007 27.055000000000003 20.745000000000001 30.325000000000003 19.915000000000003 1.425 7.495000000000001 4.995000000000001 25.165000000000003 511.84500000000008 851.70500000000015 482.14500000000004 30.075000000000003 14.425000000000002 36.955000000000005 7 25.065000000000001 499.42500000000007 5.0850000000000009 27.995000000000001 7.9650000000000007 5.0550000000000006 36.375000000000007
decision_type=1 2 2 1 2 2 2 2 2 1 2 2 2 2 2 2 2 1 1 2 2 2 2 2 2 2 2 2 1 1 2 2 2 2 2 2 2 2 2 2 2 2 2 2 2 2 2 2 2 2 2 1 2 2 2 2 2 2 2
left_child=1 -1 3 5 27 -3 8 -7 -6 24 -5 -12 13 47 15 35 39 22 23 20 21 -15 -11 41 -10 26 -17 -2 -29 49 31 -28 -26 34 -14 36 -9 38 -23 40 -16 -8 -43 -42 -19 -36 -47 -13 -38 -24 56 53 -53 55 -55 -34 57 -49 -20
right_child=4 2 -4 10 6 7 18 14 9 17 11 12 33 19 16 25 -18 44 58 -21 -22 37 29 -25 32 -27 30 28 -30 -31 -32 -33 51 -35 45 -37 48 -39 -40 -41 43 42 -44 -45 -46 46 -48 50 -50 -51 -52 52 -54 54 -56 -57 -58 -59 -60
leaf_value=-18.237913021925173 -31.367728312377675 -19.943182352582618 -18.61116389974427 -22.456086978188878 -25.861784808606355 -6.9099547976627953 -33.248624880895179 42.907228294408071 -16.434853767048359 -39.754846224329782 -11.04275968255668 4.2922913822937012 22.471120922500599 39.336890579728838 47.390606474107315 69.05915500723799 -27.335980324378383 -13.089048192349498 -17.888153514984328 -23.511494687398276 36.049701386840049 57.197175816735033 -38.801586233285761 -32.147794941745673 -20.722331235112371 67.273783721129107 92.090607141441993 -16.45426687906691 -39.800297731418922 -13.536018763022863 87.858492254122041 128.4400010218811 14.680312367312121 17.924957500322439 19.273386458158495 39.315647710678689 90.15871412066393 57.083620015187208 87.274229000273905 48.071313358206645 59.724340766457956 -7.0007722355327653 -40.237666857242587 92.200485491040936 -24.05675588191216 61.36656854356125 22.995440471993433 24.229277471788066 60.556654377336855 -2.7678222098422274 -25.617368903526895 3.7105005061724823 -13.511066346656071 7.6297780428721707 -5.0069797243364853 -1.6420202819927776 22.768290304976645 50.559172831059151 -33.040229624416291
leaf_weight=1841 4230 96 1136 145 1949 112 283 235 848 241 203 125 510 353 248 161 39 2794 546 36 334 594 91 713 370 168 244 3258 679 3153 254 708 1734 551 108 209 471 701 944 352 170 2562 128 469 1716 559 97 227 189 6588 26 1365 890 1928 1861 693 311 651 1810
leaf_count=1841 4230 96 1136 145 1949 112 283 235 848 241 203 125 510 353 248 161 39 2794 546 36 334 594 91 713 370 168 244 3258 679 3153 254 708 1734 551 108 209 471 701 944 352 170 2562 128 469 1716 559 97 227 189 6588 26 1365 890 1928 1861 693 311 651 1810
internal_value=-0.0909505 39.3926 48.4665 55.6552 -13.3566 74.6474 -10.1125 77.0865 -7.67597 -6.21568 43.3737 44.9502 46.8053 52.7251 79.4882 87.2877 63.3827 -10.4168 -20.6863 61.2619 62.3049 65.6881 -7.35502 -14.9938 0.118149 103.024 107.418 -26.1884 -20.6236 -6.56833 112.539 119.124 1.70599 32.8509 39.3063 65.4077 71.5007 69.8426 75.658 66.2382 73.4476 -10.9303 -8.5823 83.5605 -17.2239 50.5445 55.6928 33.8548 81.6818 -3.2539 36.8963 2.68563 -3.07285 4.77192 1.42313 10.0197 38.2633 43.7518 -29.404
internal_weight=54007 13577 11736 10600 40430 4125 32263 4029 26221 24272 6475 6330 6127 4302 3917 2639 1278 14583 6042 2962 2926 2592 10073 3686 9689 1535 1367 8167 3937 9832 1206 952 8841 1825 1274 1104 895 2239 1538 1239 887 2973 2690 639 4510 764 656 1340 660 6679 1215 8471 2255 6216 3789 2427 1189 878 2356
internal_count=54007 13577 11736 10600 40430 4125 32263 4029 26221 24272 6475 6330 6127 4302 3917 2639 1278 14583 6042 2962 2926 2592 10073 3686 9689 1535 1367 8167 3937 9832 1206 952 8841 1825 1274 1104 895 2239 1538 1239 887 2973 2690 639 4510 764 656 1340 660 6679 1215 8471 2255 6216 3789 2427 1189 878 2356
cat_boundaries=0 1 2 3 4 5 6 7 8
cat_threshold=2 5 5 9 8 5 18 9
is_linear=0
shrinkage=0.07


Tree=13
num_leaves=60
num_cat=10
split_feature=1 2 2 0 2 4 3 0 2 1 3 0 4 4 3 5 4 4 2 2 1 4 1 3 5 2 5 5 2 4 4 2 4 2 1 3 4 5 5 2 2 4 4 4 3 5 4 3 5 5 4 5 3 1 3 5 5 1 4
split_gain=4.99512e+09 1.25105e+09 9.94706e+08 4.26829e+08 2.97473e+08 3.09594e+08 1.55688e+08 1.38385e+08 1.20867e+08 1.17525e+08 1.15028e+08 9.66059e+07 9.52941e+07 1.18757e+08 8.83641e+07 8.69117e+07 7.87435e+07 1.06193e+08 7.57006e+07 8.72182e+07 7.16724e+07 6.11634e+07 1.96879e+08 6.38717e+07 5.3619e+07 5.00385e+07 4.75445e+07 5.72159e+07 4.72507e+07 4.82533e+07 4.64583e+07 4.24044e+07 4.15687e+07 4.14657e+07 5.34341e+07 3.57004e+07 3.5815e+07 3.44102e+07 3.42683e+07 3.13349e+07 5.02461e+07 3.08522e+07 2.9749e+07 3.25543e+07 2.94656e+07 2.89006e+07 2.81258e+07 4.64429e+07 2.70675e+07 3.43412e+07 2.52599e+07 2.41744e+07 4.39791e+07 5.55504e+07 2.40681e+07 2.34156e+07 2.41073e+07 2.33124e+07 4.79934e+07
threshold=0 13.955000000000002 39.155000000000008 1 15.025 3.0950000000000002 2.7550000000000003 2 34.975000000000001 3 2.5250000000000004 4 30.075000000000003 20.015000000000004 1.425 300.73500000000007 20.015000000000004 29.785000000000004 30.205000000000002 20.145000000000003 5 14.025 6 5.205000000000001 499.42500000000007 25.065000000000001 509.45500000000004 851.70500000000015 44.975000000000001 13.615 12.155000000000003 22.145000000000003 12.085000000000003 10.575000000000001 7 2.0650000000000004 4.8350000000000009 484.59000000000009 138.28000000000003 19.805000000000003 29.965000000000003 15.145000000000001 10.035000000000002 4.9650000000000007 1.425 851.70500000000015 5.9750000000000005 7.4650000000000007 499.42500000000007 851.70500000000015 20.135000000000002 499.42500000000007 7.4650000000000007 8 7.495000000000001 501.92500000000007 851.70500000000015 9 13.935
decision_type=1 2 2 1 2 2 2 1 2 1 2 1 2 2 2 2 2 2 2 2 1 2 1 2 2 2 2 2 2 2 2 2 2 2 1 2 2 2 2 2 2 2 2 2 2 2 2 2 2 2 2 2 2 1 2 2 2 1 2
left_child=1 -1 3 6 33 -6 -3 57 9 14 -5 16 13 30 -9 38 32 26 19 55 28 23 24 31 50 35 -18 39 29 44 -8 -17 -12 -2 -35 -11 -37 -21 -16 -28 -41 -38 43 -33 -10 -39 47 -25 -13 -50 -23 -48 -53 -54 -46 -15 -57 58 -7
right_child=4 2 -4 10 5 7 12 8 20 25 11 48 -14 18 15 21 17 -19 -20 37 -22 22 -24 46 -26 -27 27 -29 -30 -31 -32 42 -34 34 -36 36 41 45 -40 40 -42 -43 -44 -45 54 -47 51 -49 49 -51 -52 52 53 -55 -56 56 -58 -59 -60
leaf_value=-17.829399311582094 -29.171987241459519 -10.371172525006482 -18.883893178976852 -21.108660516455064 -31.170737909086785 -7.2136473199530133 -56.212233215332034 -25.603230066473895 -27.109498641775843 -29.291870599016288 -73.743423782348643 3.8622183791597688 46.431508251714256 29.905937950645669 -32.859037232787294 2.463427654752163 35.708054739933587 28.453458694558389 63.888742597524406 66.704848056628563 -25.769376301477379 16.489777119125836 -37.5532121247563 1.9229731473397247 -7.7401921518702279 -18.10736208350351 48.981130643064418 35.00566995829913 -27.600643196978602 -32.106088419241068 52.202015183415348 8.242972579844027 28.622008362371112 -15.305992656138132 -37.054712650813975 -33.70497402484601 2.2161750067392676 107.66607935364779 -7.2591176443975103 78.183166170807411 53.708185301798807 -12.921636671482441 8.6300661706612747 30.691863873476752 6.4997709162810002 75.652395088327765 11.675974543740978 -41.973635663119232 34.40099443524835 3.4180085229814057 -0.97597353005781784 8.6698591280958048 -3.4994565893112504 -51.585855407714853 -35.239239466492563 78.356078870322875 34.537766637980944 -20.512341454900508 -40.30373621811102
leaf_weight=1792 4230 117 1086 147 2913 1849 20 574 159 283 20 210 626 69 307 874 438 804 781 139 1875 1473 633 359 1060 2490 481 367 459 238 613 415 692 3258 679 182 2471 1055 1549 1112 652 900 741 1334 1454 159 1391 176 1419 200 560 966 524 144 71 508 70 3596 243
leaf_count=1792 4230 117 1086 147 2913 1849 20 574 159 283 20 210 626 69 307 874 438 804 781 139 1875 1473 633 359 1060 2490 481 367 459 238 613 415 692 3258 679 182 2471 1055 1549 1112 652 900 741 1334 1454 159 1391 176 1419 200 560 966 524 144 71 508 70 3596 243
internal_value=-0.0854885 36.6351 44.9479 51.4272 -12.4228 -9.40489 69.0664 -7.24462 -4.88046 -2.53959 40.0518 41.5203 71.5379 76.1415 1.25144 2.48501 47.0307 51.0849 82.3702 89.5872 -15.5655 4.9211 -2.31037 8.81255 5.00751 -10.3637 57.0507 60.6296 -7.39091 -2.60301 48.7766 15.7288 25.7466 -24.36 -19.1899 -5.36424 -3.45838 99.6958 -11.4936 64.8184 69.1369 -1.82536 20.385 25.3652 1.56667 103.473 2.27708 -12.5178 27.3571 30.5736 11.6787 4.8937 -0.879956 -14.69 4.55651 68.4483 73.0494 -17.041 -11.0047
internal_weight=54007 13577 11785 10699 40430 32263 4157 29350 23662 19406 6542 6395 4040 3414 13080 12506 4566 3854 2781 2000 4256 10650 3726 6924 3093 6326 3050 2612 2381 1922 633 3364 712 8167 3937 3836 3553 1353 1856 2245 1764 3371 2490 1749 1684 1214 3560 535 1829 1619 2033 3025 1634 668 1525 647 578 5688 2092
internal_count=54007 13577 11785 10699 40430 32263 4157 29350 23662 19406 6542 6395 4040 3414 13080 12506 4566 3854 2781 2000 4256 10650 3726 6924 3093 6326 3050 2612 2381 1922 633 3364 712 8167 3937 3836 3553 1353 1856 2245 1764 3371 2490 1749 1684 1214 3560 535 1829 1619 2033 3025 1634 668 1525 647 578 5688 2092
cat_boundaries=0 1 2 3 4 5 6 7 8 9 10
cat_threshold=2 5 8 9 24 8 1 5 1 8
is_linear=0
shrinkage=0.07


Tree=14
num_leaves=60
num_cat=9
split_feature=1 2 2 0 2 6 3 2 6 6 3 0 6 3 3 5 6 1 3 3 6 5 2 2 6 2 2 1 6 6 1 3 3 5 5 5 2 3 3 3 3 6 3 2 2 5 0 2 2 2 5 6 5 2 6 2 0 1 3
split_gain=4.3209e+09 1.08312e+09 8.65829e+08 3.7203e+08 2.57695e+08 1.89303e+08 1.85611e+08 1.31734e+08 1.25641e+08 2.36802e+08 1.12197e+08 1.06456e+08 8.19322e+07 7.44894e+07 9.12579e+07 6.85296e+07 4.99014e+07 4.48882e+07 4.4875e+07 5.69832e+07 4.48611e+07 4.40165e+07 4.36538e+07 6.04091e+07 4.26358e+07 4.06661e+07 3.70679e+07 5.0774e+07 3.62724e+07 3.32534e+07 3.86844e+07 3.29146e+07 5.44372e+07 3.29101e+07 3.79546e+07 3.0913e+07 3.0098e+07 2.64154e+07 2.63108e+07 2.57063e+07 2.45908e+07 2.25935e+07 2.1442e+07 2.05863e+07 3.00384e+07 2.01994e+07 1.85193e+07 1.84454e+07 1.74372e+07 2.52087e+07 1.71821e+07 1.71343e+07 1.70922e+07 1.69843e+07 1.68079e+07 1.67249e+07 1.6021e+07 1.58758e+07 1.58427e+07
threshold=0 14.125000000000002 38.905000000000008 1 15.185 12.845000000000001 2.4750000000000005 34.975000000000001 26.975000000000005 20.935000000000006 1.9850000000000001 2 37.555000000000007 4.995000000000001 7.9650000000000007 859.28000000000009 23.965000000000003 3 8.0050000000000008 4.9650000000000007 12.595000000000001 499.42500000000007 30.075000000000003 19.915000000000003 13.055000000000001 44.975000000000001 10.315000000000003 4 37.885000000000012 30.495000000000001 5 8.0050000000000008 4.9350000000000014 499.42500000000007 851.70500000000015 209.57000000000002 30.075000000000003 5.0550000000000006 2.5250000000000004 7.8850000000000007 1.425 13.055000000000001 7.495000000000001 30.685000000000006 20.145000000000003 157.97500000000005 6 20.145000000000003 31.165000000000003 20.145000000000003 843.70500000000015 43.060000000000009 501.92500000000007 36.375000000000007 15.115 28.635000000000002 7 8 11.155000000000003
decision_type=1 2 2 1 2 2 2 2 2 2 2 1 2 2 2 2 2 1 2 2 2 2 2 2 2 2 2 1 2 2 1 2 2 2 2 2 2 2 2 2 2 2 2 2 2 2 1 2 2 2 2 2 2 2 2 2 1 1 2
left_child=1 -1 3 5 26 -3 -7 10 9 18 -6 24 22 38 20 21 41 25 19 50 -15 55 23 -10 -12 40 -2 -28 33 30 45 32 48 -22 43 -26 47 -25 -5 -39 -9 -13 54 44 -35 -18 -37 -21 49 -23 -8 -31 -40 57 -42 -11 -47 -19 -20
right_child=4 2 -4 13 7 6 8 17 12 15 11 16 -14 14 -16 -17 29 53 58 36 28 31 -24 37 35 -27 27 -29 -30 51 -32 -33 -34 34 -36 46 -38 39 52 -41 42 -43 -44 -45 -46 56 -48 -49 -50 -51 -52 -53 -54 -55 -56 -57 -58 -59 -60
leaf_value=-15.823509909672657 -27.332280426483415 -8.0521565295815485 -16.152357362210882 -21.591892758117787 -22.730330213894884 -17.116435365019175 38.662237191760305 -29.141776801335098 35.323659647077022 76.753401992225648 -14.626085077964632 -22.254041563949396 -22.694226030048572 -15.314074001312257 19.029843713190672 51.524928527780013 -27.81570190300376 -4.9445506857399248 32.654414033434442 56.059888303662852 23.630044413814179 48.287169790903732 35.025764451430128 48.101272894995553 -16.426757820513977 -28.128485925558742 -14.337014390988324 -34.638648847752663 -31.764607980662383 -10.041854636421618 -19.588710688954411 75.093365801741825 105.97580039117149 41.744567936595622 24.773310291502213 6.1111441615870428 45.639773498520981 83.628628608414985 -7.7680626565438731 54.443955451542486 -51.654967424441615 -11.61364475577918 -35.409242656826976 40.644122530512355 65.277117830190761 4.6363331302972171 -0.47813454801950511 81.247263514813 46.737133000542137 95.778764204485668 -5.3076539308884563 -47.800163648366933 22.060411812317486 -28.980853968715145 -5.3472977316826649 42.112176034450535 -4.7208811327487386 -29.754902852612876 -31.278113479614262
leaf_weight=1841 4055 200 1136 90 1945 145 298 283 396 175 838 1194 76 60 991 275 118 341 377 207 260 75 561 245 429 713 3520 741 29 3182 506 402 1038 377 252 4199 269 489 108 212 39 5401 128 431 901 2717 4156 457 85 203 51 60 733 1810 2523 112 1327 205 20
leaf_count=1841 4055 200 1136 90 1945 145 298 283 396 175 838 1194 76 60 991 275 118 341 377 207 260 75 561 245 429 713 3520 741 29 3182 506 402 1038 377 252 4199 269 489 108 212 39 5401 128 431 901 2717 4156 457 85 203 51 60 733 1810 2523 112 1327 205 20
internal_value=-0.0819835 34.0706 41.9265 48.1507 -11.5565 58.8797 61.1454 -8.71551 63.0295 70.1021 -6.55725 -5.25346 48.5772 31.7924 36.7995 84.3744 -9.0373 -18.0286 49.9984 56.3667 44.4228 88.6967 51.4235 58.2783 0.459526 -13.0792 -22.5416 -17.9825 46.0158 -5.29453 -1.51212 92.7497 97.816 47.0314 50.1341 1.89923 65.3928 67.8872 14.3803 74.8025 -9.51405 -13.54 -7.44913 53.8736 58.3352 0.730875 2.8402 73.3952 74.4829 82.9663 32.2368 -10.7407 18.2299 -25.6079 -6.05222 63.2349 1.56564 -14.8953 29.4336
internal_weight=54007 13577 11736 10600 40430 6368 6168 32114 6023 4044 26072 24127 1979 4232 3301 2365 14505 6042 1679 1282 2310 2090 1903 1342 9622 3686 8316 4261 2250 7910 4668 1803 1401 2221 1961 8784 933 946 931 701 2973 6595 2690 1709 1278 4162 8355 664 363 278 349 3242 841 2356 2562 287 4044 546 397
internal_count=54007 13577 11736 10600 40430 6368 6168 32114 6023 4044 26072 24127 1979 4232 3301 2365 14505 6042 1679 1282 2310 2090 1903 1342 9622 3686 8316 4261 2250 7910 4668 1803 1401 2221 1961 8784 933 946 931 701 2973 6595 2690 1709 1278 4162 8355 664 363 278 349 3242 841 2356 2562 287 4044 546 397
cat_boundaries=0 1 2 3 4 5 6 7 8 9
cat_threshold=2 21 5 8 5 9 1 18 1
is_linear=0
shrinkage=0.07


Tree=15
num_leaves=60
num_cat=9
split_feature=1 2 2 0 4 2 6 0 0 1 2 2 4 4 5 6 6 6 6 6 6 4 2 2 4 0 4 6 6 6 6 6 6 1 2 4 1 6 5 2 4 5 5 4 5 4 4 4 5 6 4 6 4 1 2 2 6 4 4
split_gain=3.67052e+09 9.4781e+08 7.30243e+08 3.12466e+08 2.56585e+08 2.51037e+08 1.6647e+08 1.20309e+08 1.17482e+08 8.49385e+07 8.0588e+07 7.45651e+07 6.89356e+07 9.45923e+07 6.54555e+07 6.16842e+07 5.84754e+07 6.26675e+07 7.17318e+07 5.78959e+07 1.02975e+08 4.79217e+07 4.66986e+07 6.36498e+07 4.62301e+07 4.26039e+07 3.94129e+07 3.68438e+07 4.89933e+07 3.5294e+07 3.52983e+07 3.18442e+07 5.2442e+07 3.1412e+07 3.60777e+07 3.07867e+07 6.19844e+07 2.90564e+07 2.6934e+07 2.57588e+07 2.63586e+07 4.45411e+07 3.70161e+07 2.61258e+07 2.56908e+07 2.51445e+07 2.24355e+07 2.8378e+07 2.19819e+07 2.19664e+07 2.33334e+07 2.14204e+07 2.05026e+07 2.19279e+07 1.94054e+07 3.23934e+07 1.92987e+07 1.91852e+07 1.76816e+07
threshold=0 13.955000000000002 39.155000000000008 1 4.4150000000000009 12.525 12.595000000000001 2 3 4 36.375000000000007 32.585000000000008 29.785000000000004 20.015000000000004 157.97500000000005 14.425000000000002 12.595000000000001 27.055000000000003 21.025000000000002 26.815000000000001 21.025000000000002 11.925000000000002 29.965000000000003 20.035000000000004 13.535000000000002 5 20.985000000000003 28.205000000000002 21.025000000000002 7.4050000000000011 21.025000000000002 32.065000000000005 24.355000000000004 6 45.675000000000004 2.9050000000000007 7 37.555000000000007 518.70500000000015 18.025000000000002 10.035000000000002 594.37500000000011 501.92500000000007 14.025 200.01500000000001 20.255000000000006 7.9650000000000007 14.965000000000002 521.15500000000009 37.885000000000012 30.365000000000006 30.035000000000004 13.855000000000002 8 30.685000000000006 20.035000000000004 37.245000000000012 20.135000000000002 19.895000000000003
decision_type=1 2 2 1 2 2 2 1 1 1 2 2 2 2 2 2 2 2 2 2 2 2 2 2 2 1 2 2 2 2 2 2 2 1 2 2 1 2 2 2 2 2 2 2 2 2 2 2 2 2 2 2 2 1 2 2 2 2 2
left_child=1 -1 3 6 35 -6 -3 52 19 10 14 26 13 21 -9 -16 -5 18 -18 20 -8 -10 23 48 33 -17 29 28 -25 -11 44 32 -27 34 -12 -2 -37 58 -20 -34 41 -41 51 -44 -31 -22 -46 -48 -15 50 57 -42 53 -7 55 -40 -29 -19 -21
right_child=4 2 -4 16 5 7 8 9 12 11 24 -13 -14 22 15 25 17 49 38 37 45 -23 -24 27 -26 31 -28 56 -30 30 -32 -33 39 -35 -36 36 -38 -39 54 40 42 -43 43 -45 46 -47 47 -49 -50 -51 -52 -53 -54 -55 -56 -57 -58 -59 -60
leaf_value=-15.39049765687037 -29.77318475250387 -13.463393976160852 -16.017338642547564 -21.201612983635808 -22.676589710337218 -5.9424397681245367 57.415564765894302 -26.502131473533179 -72.733737723610616 -29.182835184670399 3.7679188209933474 -27.871267112191049 28.873477440086695 16.28852262831202 -33.852546716836784 9.278004310667006 23.82123135017434 4.6043605828624212 24.860223472104018 30.473593187240457 68.767833936088962 32.367178710735509 44.277294288919968 60.379828279610933 -25.951133587317347 -5.2340802860498679 -38.375186073498853 57.693472113844287 91.78477288302669 -34.917397433593216 -14.139115490646612 -6.9742409084746138 -4.3039111679325996 -24.513459338571717 -22.674326353207654 -9.0825272004090749 -36.038084330964132 -17.201184141370987 34.936713088755013 -2.8327378271222119 17.241432569540638 24.117658045387575 5.1886447256626651 -15.28952614788941 -12.050900003430071 102.32953736215831 5.3903928163154999 -8.2936041521287311 51.610585556406782 -30.028094941748517 -3.9092488716949116 -3.4493718239747295 -20.527238678997026 -17.050213555568085 36.398835263622061 62.729282553408247 -8.5301119667550793 28.109263522829757 61.979643711258923
leaf_weight=1839 3103 174 1088 109 5236 1669 598 413 22 317 1219 1005 702 102 234 3315 1248 211 249 104 133 630 824 402 831 2872 195 345 617 113 1593 2361 869 358 319 1248 637 27 286 420 1082 1056 674 558 755 616 2453 1065 562 45 176 317 2188 1901 382 730 23 879 543
leaf_count=1839 3103 174 1088 109 5236 1669 598 413 22 317 1219 1005 702 102 234 3315 1248 211 249 104 133 630 824 402 831 2872 195 345 617 113 1593 2361 869 358 319 1248 637 27 286 420 1082 1056 674 558 755 616 2453 1065 562 45 176 317 2188 1901 382 730 23 879 543
internal_value=-0.00690366 31.3369 38.6291 44.1655 -10.6209 -8.52853 53.9876 -6.07167 55.9518 -3.91735 -1.16374 -10.1149 48.7906 52.8932 0.956164 1.78043 29.3496 30.7294 36.4794 70.3473 79.0762 28.8208 58.3524 64.0071 -12.1842 2.39697 -7.38128 72.5393 79.3954 -6.42133 -5.21454 0.153372 2.29785 -6.1503 -1.70544 -25.4869 -18.431 53.9462 46.0709 6.64505 8.96174 16.4488 4.76145 -4.08637 -1.97313 96.37 -1.10192 1.24785 46.1846 18.0322 19.7405 12.5531 -15.1654 -11.9217 49.8488 54.9058 53.5545 23.5592 56.9153
internal_weight=54042 13666 11827 10739 40376 35388 6424 30152 6250 24394 16898 7496 4229 3527 14171 13758 4315 4206 2895 2021 1347 652 2875 2051 2727 13524 6491 1387 1019 6296 5979 10209 7848 1896 1538 4988 1885 674 1647 4976 4107 1476 2631 1232 4386 749 4273 3518 664 1311 1266 1399 5758 3570 1398 1016 368 1090 647
internal_count=54042 13666 11827 10739 40376 35388 6424 30152 6250 24394 16898 7496 4229 3527 14171 13758 4315 4206 2895 2021 1347 652 2875 2051 2727 13524 6491 1387 1019 6296 5979 10209 7848 1896 1538 4988 1885 674 1647 4976 4107 1476 2631 1232 4386 749 4273 3518 664 1311 1266 1399 5758 3570 1398 1016 368 1090 647
cat_boundaries=0 1 2 3 4 5 6 7 8 9
cat_threshold=2 21 8 1 9 1 8 8 8
is_linear=0
shrinkage=0.07


Tree=16
num_leaves=60
num_cat=6
split_feature=4 2 5 2 4 2 0 2 3 5 3 6 6 0 3 3 6 5 3 3 4 6 5 6 6 0 4 5 3 4 2 4 2 5 6 5 2 6 3 6 0 3 6 6 5 2 2 2 0 3 3 4 3 2 2 0 6 6 6
split_gain=1.97212e+09 7.4164e+08 5.21184e+08 4.86456e+08 2.90881e+08 2.68465e+08 2.05323e+08 1.31143e+08 1.12609e+08 1.12133e+08 1.08898e+08 9.8779e+07 9.73079e+07 8.60658e+07 8.43243e+07 8.27132e+07 8.40311e+07 7.02578e+07 6.48994e+07 8.38768e+07 6.43845e+07 5.69469e+07 4.25199e+07 4.2025e+07 7.23709e+07 3.78112e+07 3.40671e+07 4.88807e+07 3.38758e+07 3.04607e+07 3.03725e+07 2.95793e+07 2.83759e+07 2.82419e+07 2.64967e+07 2.46787e+07 2.38008e+07 2.36478e+07 2.34105e+07 2.23647e+07 2.21078e+07 2.07409e+07 2.05443e+07 2.01226e+07 1.87182e+07 1.83902e+07 2.18299e+07 1.80587e+07 1.70148e+07 1.69687e+07 1.99578e+07 1.688e+07 2.04326e+07 1.65649e+07 2.92605e+07 1.59464e+07 1.77317e+07 1.71597e+07 1.59081e+07
threshold=20.015000000000004 13.955000000000002 499.42500000000007 39.155000000000008 4.8350000000000009 14.745000000000003 0 35.135000000000012 1.9850000000000001 300.73500000000007 3.1650000000000005 12.845000000000001 13.275 1 9.3050000000000015 2.4750000000000005 12.595000000000001 300.73500000000007 8.0050000000000008 4.995000000000001 30.075000000000003 37.555000000000007 847.5150000000001 21.025000000000002 26.975000000000005 2 2.9050000000000007 617.78500000000008 11.945000000000002 10.035000000000002 10.575000000000001 29.785000000000004 39.155000000000008 599.21500000000015 13.465000000000002 138.28000000000003 45.675000000000004 27.435000000000006 11.945000000000002 21.205000000000002 3 10.005000000000001 43.060000000000009 37.555000000000007 680.48500000000013 17.415000000000003 29.865000000000006 15.625000000000002 4 7.4650000000000007 1.5350000000000004 17.715000000000003 4.5250000000000012 19.915000000000003 27.665000000000003 5 28.935000000000006 21.115000000000006 15.275
decision_type=2 2 2 2 2 2 1 2 2 2 2 2 2 1 2 2 2 2 2 2 2 2 2 2 2 1 2 2 2 2 2 2 2 2 2 2 2 2 2 2 1 2 2 2 2 2 2 2 1 2 2 2 2 2 2 1 2 2 2
left_child=4 -2 17 6 26 30 10 8 -7 35 -4 -11 -12 42 20 -8 -17 -3 19 55 21 22 23 -14 -25 31 -1 -28 37 33 -6 43 34 -9 -19 -10 49 39 -16 -20 -15 48 51 53 -32 -22 -47 -29 -36 50 -35 -13 -53 -21 -55 56 57 -18 -52
right_child=1 2 3 -5 5 7 15 29 9 11 12 13 14 40 38 16 18 32 28 25 45 -23 -24 24 -26 -27 27 47 -30 -31 44 -33 -34 36 41 -37 -38 -39 -40 -41 -42 -43 -44 -45 -46 46 -48 -49 -50 -51 58 52 -54 54 -56 -57 -58 -59 -60
leaf_value=-27.689061878218101 -16.370245673200095 -21.039428192191803 0.17671559218182625 -13.548677250327989 -22.39072815252463 -19.034999920145836 -22.517221593219183 -19.518827379344792 -29.936855973874113 -13.968044249482393 -2.2015566816711427 9.5691753163596349 58.809542813156106 2.6401753038850098 30.649932420437157 -17.046281005269606 20.515834585564324 -25.042983068077312 17.84251732987352 44.092519705092037 3.9010296605373256 -28.073933500092608 46.233125742968951 95.435911498150688 63.105722592479886 32.462636420245218 -29.42359916807435 -30.081377323362567 -47.664502123630413 -17.456939406419078 -10.274490992435402 35.026404743556412 -21.835494812723056 -21.486528998407827 28.757255531985237 -10.008347202106544 -21.035193129891937 9.8456231160054131 -46.048387409845994 40.334301585210888 -4.3092947527048402 -6.4823016804642979 -42.881666038513181 -12.657687353372575 -23.988383955338843 57.515143299239654 22.954622096588366 -6.5252019659432987 10.572841166057819 -31.260212101936343 -36.966936401367185 -7.7109114598798332 24.560191128476418 73.016413109820121 51.042322942062505 9.1979620450954513 8.7999236570566133 45.962243580414594 11.147622716186953
leaf_weight=3103 2075 534 166 862 3670 1466 129 541 354 1557 125 5876 592 7012 273 152 219 103 384 328 58 29 303 766 609 797 933 180 33 2935 2481 369 152 116 321 2177 230 391 21 497 3286 272 35 20 607 270 134 1398 1307 64 35 111 718 585 603 316 156 319 887
leaf_count=3103 2075 534 166 862 3670 1466 129 541 354 1557 125 5876 592 7012 273 152 219 103 384 328 58 29 303 766 609 797 933 180 33 2935 2481 369 152 116 321 2177 230 391 21 497 3286 272 35 20 607 270 134 1398 1307 64 35 111 718 585 603 316 156 319 887
internal_value=-0.00750001 22.3167 28.8994 36.596 -8.01732 -5.59039 41.5965 -2.50841 -0.274326 1.02754 55.2833 2.90904 58.3338 4.45133 60.8107 32.7862 34.2298 1.69075 35.7833 40.5039 64.6057 69.3976 70.6428 74.4029 81.1166 46.9372 -22.7838 -16.7221 22.3559 -13.006 -18.0861 52.5468 7.32319 -6.03138 9.53593 -12.7957 -0.553368 24.1724 25.1715 30.5308 0.420632 11.4105 10.5935 57.0979 -12.9702 40.7603 46.052 -9.21222 14.3999 3.72142 5.87829 10.8884 20.2392 58.0181 61.8629 23.2933 29.1587 35.6039 9.32115
internal_weight=54042 14270 12195 9506 39772 34158 8644 27400 22592 21126 3346 18595 3180 17038 3055 5298 5169 2689 5017 3712 2761 2299 2270 1967 1375 2702 5614 2511 1305 4808 6758 1905 2155 1873 2003 2531 1332 1272 294 881 10298 1900 6740 1536 3088 462 404 1578 1628 1102 1038 6705 829 1516 1188 1010 694 538 922
internal_count=54042 14270 12195 9506 39772 34158 8644 27400 22592 21126 3346 18595 3180 17038 3055 5298 5169 2689 5017 3712 2761 2299 2270 1967 1375 2702 5614 2511 1305 4808 6758 1905 2155 1873 2003 2531 1332 1272 294 881 10298 1900 6740 1536 3088 462 404 1578 1628 1102 1038 6705 829 1516 1188 1010 694 538 922
cat_boundaries=0 1 2 3 4 5 6
cat_threshold=5 5 24 18 1 24
is_linear=0
shrinkage=0.07


Tree=17
num_leaves=60
num_cat=3
split_feature=4 2 5 2 4 2 0 3 2 6 3 3 5 6 3 0 5 3 0 6 6 6 2 4 5 5 4 2 3 6 6 6 6 5 6 6 6 6 3 6 6 5 2 6 3 2 6 2 2 3 6 6 3 4 3 2 2 2 2
split_gain=1.70617e+09 6.41586e+08 4.50573e+08 4.20791e+08 2.51582e+08 2.32731e+08 1.77779e+08 1.2913e+08 1.17449e+08 1.12945e+08 9.69262e+07 9.57281e+07 9.47145e+07 9.10262e+07 8.68322e+07 7.32341e+07 6.08248e+07 5.18937e+07 4.87781e+07 4.31119e+07 4.59801e+07 4.49334e+07 3.11886e+07 2.94647e+07 4.2277e+07 2.90452e+07 2.63455e+07 2.5328e+07 2.49834e+07 2.44133e+07 2.77731e+07 2.38869e+07 3.05616e+07 2.355e+07 2.29282e+07 4.41824e+07 2.28233e+07 3.41948e+07 2.21549e+07 2.13094e+07 3.54415e+07 2.09527e+07 2.04149e+07 2.18239e+07 2.04066e+07 1.96429e+07 2.16214e+07 1.89376e+07 2.13858e+07 1.84517e+07 1.77844e+07 1.71492e+07 1.69273e+07 2.19309e+07 1.67823e+07 1.62764e+07 2.38829e+07 1.59651e+07 1.5619e+07
threshold=20.015000000000004 13.955000000000002 499.42500000000007 39.155000000000008 4.8350000000000009 15.325000000000001 0 2.9650000000000003 35.135000000000012 12.845000000000001 8.0050000000000008 1.5350000000000004 300.73500000000007 13.055000000000001 4.995000000000001 1 300.73500000000007 12.115 2 12.595000000000001 26.975000000000005 20.745000000000001 10.575000000000001 2.9050000000000007 617.78500000000008 847.5150000000001 10.035000000000002 29.545000000000005 6.8950000000000005 29.615000000000006 21.115000000000006 26.645000000000003 21.295000000000005 608.36500000000012 20.745000000000001 27.125000000000004 23.815000000000001 32.065000000000005 2.6450000000000005 27.205000000000002 21.025000000000002 138.28000000000003 17.525000000000002 15.585000000000003 8.0350000000000019 45.675000000000004 22.245000000000001 30.075000000000003 18.135000000000002 1.425 43.060000000000009 37.885000000000012 3.0650000000000004 13.775 4.995000000000001 29.865000000000006 22.985000000000003 30.915000000000003 15.625000000000002
decision_type=2 2 2 2 2 2 1 2 2 2 2 2 2 2 2 1 2 2 1 2 2 2 2 2 2 2 2 2 2 2 2 2 2 2 2 2 2 2 2 2 2 2 2 2 2 2 2 2 2 2 2 2 2 2 2 2 2 2 2
left_child=4 -2 16 6 23 22 7 -4 11 -9 14 -7 41 -14 29 50 -3 31 39 -8 21 -21 -6 -1 -25 34 28 42 45 30 -11 32 -12 -24 -20 -36 -17 -38 -23 40 57 -13 -18 -44 54 46 -10 48 -34 -48 52 -22 53 -15 -40 56 -32 -16 -26
right_child=1 2 3 -5 5 8 19 9 26 10 17 12 13 15 18 36 27 -19 25 20 51 38 33 24 58 -27 -28 -29 -30 -31 55 -33 47 -35 35 -37 37 -39 44 -41 -42 -43 43 -45 -46 -47 49 -49 -50 -51 -52 -53 -54 -55 -56 -57 -58 -59 -60
leaf_value=-25.750827467915631 -15.224328435113632 -19.566668252058694 -6.2103626281858615 -12.600269777909519 -20.823377137936433 -21.661581109784592 -19.086274007618432 -7.0920696357886008 -14.843567403253974 27.537822569640912 28.467104083080685 -27.720788478824151 -13.164131285439439 6.4180437165395654 78.37920999900156 -3.4470273665446971 -4.8461639751055658 -63.642060499924888 45.790086042069383 21.354722916728129 17.456029116888324 -12.835969848301676 -8.0409600825205825 -27.363947182044086 -27.975681073411476 34.175557470789144 -16.23495364268425 -3.5528686792672319 -23.868369515815857 15.888240840587352 43.990846605273816 23.253024350135558 31.353769161917949 -20.380429585683071 77.184959382348595 49.174861380777145 6.5693978437847811 -5.1661876122386774 31.769281750025808 63.495122687013264 103.21365992960723 -9.265075014596972 -14.884779365038632 19.520093717557764 27.319885122279015 -19.722917650720028 -21.651946834638284 33.145720462960718 76.669005953025831 9.6251812036343747 -39.87994973945618 -27.656727235040005 11.446986060639299 -22.503011929263241 52.886576519628235 33.574701782783485 80.10747941892005 37.551725279490157 -6.0684378504591105
leaf_weight=3103 2075 534 214 862 3670 958 100 168 306 296 343 351 1622 636 184 4262 272 26 423 931 1038 36 2569 933 180 255 2935 751 307 180 176 434 66 1075 630 491 4304 1696 244 253 322 2134 99 1033 316 257 103 118 225 900 35 43 5877 161 755 131 183 63 1398
leaf_count=3103 2075 534 214 862 3670 958 100 168 306 296 343 351 1622 636 184 4262 272 26 423 931 1038 36 2569 933 180 255 2935 751 307 180 176 434 66 1075 630 491 4304 1696 244 253 322 2134 99 1033 316 257 103 118 225 900 35 43 5877 161 755 131 183 63 1398
internal_value=-0.00594754 20.7585 26.881 34.0373 -7.45613 -5.19909 38.6881 46.94 -2.18308 49.3244 51.2994 -0.0202872 0.963315 2.67877 57.0821 4.19295 1.58263 34.1852 63.694 26.1315 27.5538 33.1873 -16.2685 -21.1889 -15.5515 55.752 -12.0956 6.82334 -5.60918 39.1423 44.4676 36.3298 43.8767 -11.6812 59.6765 64.9165 0.469393 3.25214 41.3413 79.431 87.9127 -11.8719 12.3736 16.5112 42.8245 -2.02964 1.44414 56.7997 66.3913 6.41327 9.87305 15.6615 10.1488 0.575773 47.7288 54.6946 62.4013 67.9657 -8.56736
internal_weight=54042 14270 12195 9506 39772 34158 8644 5181 26844 4967 4799 22036 21078 18593 3587 16971 2689 1212 2621 3463 3363 2282 7314 5614 2511 1799 4808 2155 1873 966 786 1186 752 3644 1544 1121 10262 6000 1351 822 569 2485 1404 1132 1315 1566 1309 409 291 1003 6709 1081 6674 797 999 490 359 247 1578
internal_count=54042 14270 12195 9506 39772 34158 8644 5181 26844 4967 4799 22036 21078 18593 3587 16971 2689 1212 2621 3463 3363 2282 7314 5614 2511 1799 4808 2155 1873 966 786 1186 752 3644 1544 1121 10262 6000 1351 822 569 2485 1404 1132 1315 1566 1309 409 291 1003 6709 1081 6674 797 999 490 359 247 1578
cat_boundaries=0 1 2 3
cat_threshold=21 5 1
is_linear=0
shrinkage=0.07


Tree=18
num_leaves=60
num_cat=8
split_feature=1 2 2 0 4 2 6 4 4 1 1 4 4 2 2 2 2 4 2 4 4 4 1 4 6 4 5 6 2 2 6 6 5 5 4 0 5 0 2 1 6 6 4 2 2 5 5 4 5 5 5 6 6 5 5 2 2 6 6
split_gain=2.55334e+09 6.32207e+08 4.96878e+08 2.19673e+08 1.59981e+08 1.62641e+08 1.15324e+08 9.54999e+07 8.99961e+07 1.40788e+08 1.25559e+08 1.15837e+08 8.34384e+07 8.07805e+07 6.92155e+07 6.7452e+07 9.15997e+07 6.04002e+07 5.84764e+07 5.50682e+07 5.36431e+07 5.08989e+07 4.8752e+07 4.65979e+07 4.10033e+07 3.68435e+07 3.66638e+07 3.23778e+07 3.16909e+07 4.21716e+07 3.04354e+07 5.11455e+07 2.88279e+07 2.91709e+07 2.74579e+07 2.56532e+07 2.35078e+07 2.32942e+07 2.22323e+07 3.63067e+07 2.12167e+07 4.07347e+07 1.90875e+07 1.90624e+07 2.85294e+07 1.79019e+07 1.85918e+07 1.78306e+07 1.73029e+07 2.0917e+07 1.62376e+07 1.61476e+07 2.09979e+07 1.6799e+07 1.60297e+07 1.91388e+07 1.96282e+07 1.51977e+07 2.54646e+07
threshold=0 13.955000000000002 39.155000000000008 1 3.0950000000000002 15.185 12.595000000000001 30.075000000000003 14.025 2 3 7.9650000000000007 20.015000000000004 27.995000000000001 27.995000000000001 29.965000000000003 20.035000000000004 11.925000000000002 45.675000000000004 10.035000000000002 30.075000000000003 20.135000000000002 4 4.9650000000000007 37.555000000000007 19.895000000000003 885.54500000000007 14.935 19.915000000000003 29.965000000000003 21.025000000000002 27.055000000000003 945.52500000000009 596.60000000000014 20.615000000000006 5 836.20000000000016 6 10.315000000000003 7 31.945000000000004 24.985000000000003 5.9750000000000005 17.645000000000003 29.865000000000006 749.94000000000017 157.97500000000005 27.995000000000001 851.70500000000015 518.70500000000015 537.03000000000009 13.675000000000002 26.975000000000005 383.72500000000008 859.28000000000009 19.685000000000006 30.205000000000002 19.795000000000005 27.125000000000004
decision_type=1 2 2 1 2 2 2 2 2 1 1 2 2 2 2 2 2 2 2 2 2 2 1 2 2 2 2 2 2 2 2 2 2 2 2 1 2 1 2 1 2 2 2 2 2 2 2 2 2 2 2 2 2 2 2 2 2 2 2
